Layer: lstm.weight_ih_l0
Values: [[0.24467849731445312, 0.045129746198654175, 0.18648627400398254, -0.2330528199672699], [-0.17224307358264923, 0.060776546597480774, -0.1498863399028778, 0.07329082489013672], [0.08635110408067703, 0.0746801346540451, 0.20284803211688995, -0.046852659434080124], [0.16700422763824463, 0.05308147892355919, 0.13014979660511017, 0.03893614932894707], [-0.13636016845703125, -0.1943129450082779, 0.16000023484230042, -0.12983042001724243], [0.12587985396385193, 0.06960076838731766, -0.09524836391210556, 0.06868985295295715], [0.1329910308122635, 0.09250372648239136, -0.039878811687231064, -0.15298783779144287], [-0.25726962089538574, -0.12234645336866379, -0.190835639834404, -0.10669344663619995], [0.1681913435459137, -0.0016318202251568437, -0.014883401803672314, -0.1258649230003357], [-0.23298682272434235, 0.10762917995452881, -0.07959909737110138, -0.04339579492807388], [0.10705797374248505, 0.05166793242096901, 0.22795268893241882, 0.08507362753152847], [0.26407235860824585, 0.08934789896011353, 0.07585230469703674, -0.04345003515481949], [-0.00597683759406209, 0.09146352112293243, 0.12701788544654846, 0.10552047193050385], [0.0365506075322628, 0.07585200667381287, -0.1823113113641739, 0.08459682762622833], [-0.09439532458782196, 0.15785397589206696, 0.036320582032203674, 0.04545888304710388], [0.2823212146759033, 0.147726908326149, 0.20327028632164001, -0.0026927818544209003], [-0.08660458773374557, 0.2259608805179596, 0.055488958954811096, 0.009096816182136536], [0.09772086143493652, 0.04532010108232498, 0.13846120238304138, 0.04769556596875191], [0.003751771291717887, 0.11373303085565567, -0.1565777063369751, 0.053182587027549744], [-0.18409772217273712, 0.14116963744163513, -0.1887616664171219, -0.05811507999897003], [0.12352181226015091, 0.012606886215507984, -0.09272625297307968, 0.09591474384069443], [0.14563685655593872, 0.07829513400793076, 0.17429319024085999, -0.2464389204978943], [-0.06060614064335823, 0.19754548370838165, -0.00578903965651989, -0.03903863951563835], [-0.27182549238204956, -0.00391034921631217, 0.05479105934500694, -0.021552104502916336], [0.11645526438951492, -0.08562642335891724, -0.02491140365600586, 0.18823502957820892], [0.07245655357837677, -0.01775841787457466, 0.061772603541612625, 0.04922742396593094], [-0.0375848151743412, 0.06530120223760605, 0.20887288451194763, 0.13294082880020142], [-0.05007607489824295, 0.06662895530462265, -0.1610029935836792, -0.0787123590707779], [0.2846212685108185, 0.13293762505054474, -0.07576952129602432, -0.120374895632267], [-0.1649218499660492, -0.09991618245840073, -0.011564069427549839, -0.0019978450145572424], [0.06251437216997147, -0.01147865317761898, 0.21803022921085358, 0.1613435596227646], [-0.09488024562597275, 0.1850864142179489, -0.15222299098968506, -0.029109319671988487], [0.07742717117071152, 0.15477581322193146, -0.013639312237501144, 0.0860770121216774], [-0.09757133573293686, -0.11632280051708221, -0.26214468479156494, -0.14161181449890137], [0.2071455866098404, 0.10340356826782227, -0.04108896106481552, 0.029580852016806602], [0.3104206621646881, -0.029114142060279846, -0.03965004161000252, 0.06010330840945244], [0.12565170228481293, 0.057682376354932785, 0.021470600739121437, -0.11688179522752762], [-0.024346040561795235, -0.03694571182131767, -0.112408846616745, 0.11961986869573593], [0.2126196175813675, -0.0329207107424736, -0.061774637550115585, -0.1605185866355896], [-0.35351893305778503, 0.00098321121186018, -0.034750644117593765, 0.059008631855249405], [0.24679633975028992, 0.026309460401535034, 0.005300662945955992, -0.182948499917984], [-0.12174900621175766, 0.05341047793626785, -0.07932668179273605, -0.06195761263370514], [0.1710868924856186, 0.053908057510852814, 0.23732824623584747, -0.23220326006412506], [0.18553905189037323, -0.09875006973743439, -0.006823256146162748, 0.00790891982614994], [-0.008809003047645092, -0.02879446931183338, -0.02354777604341507, 0.08232856541872025], [-0.15222181379795074, -0.10773510485887527, -0.06262021511793137, -0.15324600040912628], [-0.0023568812757730484, -0.13379471004009247, 0.09219560772180557, -0.0494394451379776], [0.18393179774284363, -0.06602257490158081, 0.017794102430343628, -0.04081268608570099], [0.06109016016125679, -0.044093966484069824, 0.06325720995664597, 0.06000101938843727], [0.061057038605213165, -0.23158229887485504, 0.035559993237257004, 0.02323918044567108], [-0.10919038206338882, -0.07184617221355438, -0.13246574997901917, -0.07382307201623917], [-0.10361698269844055, -0.10511406511068344, -0.2345685064792633, -0.01184859685599804], [-0.020461924374103546, 0.006441209930926561, -0.10695599764585495, -0.09190299361944199], [0.30108222365379333, 0.05681327357888222, 0.14694365859031677, 0.08499520272016525], [-0.10999155044555664, 0.13980627059936523, -0.11007841676473618, 0.02402600273489952], [-0.3126479387283325, -0.08456317335367203, 0.0008652511751279235, 0.11226572096347809], [0.05210711807012558, -0.013734035193920135, 0.21852385997772217, 0.16218113899230957], [-0.11772697418928146, -0.01720057614147663, 0.129573255777359, 0.06862366199493408], [0.08545839786529541, 0.04327515885233879, -0.0028089017141610384, -0.09946496039628983], [-0.2509171962738037, -0.1460883766412735, -0.1817922294139862, 0.07134640961885452], [0.07302197813987732, -0.11143986135721207, 0.0494646281003952, 0.05013330653309822], [-0.22491641342639923, -0.16844157874584198, -0.0163671113550663, -0.04980993643403053], [0.04581860825419426, 0.037706661969423294, 0.023490700870752335, -0.08690402656793594], [-0.30515196919441223, -0.1190321072936058, -0.0036626006476581097, -0.040251027792692184], [0.2180805653333664, -0.04345272481441498, 0.07398650795221329, -0.05055642127990723], [0.1705096960067749, 0.0017962651327252388, 0.2636082172393799, -0.008119557984173298], [0.28062671422958374, -0.06638815999031067, 0.15720613300800323, 0.00600049551576376], [-0.04572848975658417, 0.051005568355321884, -0.23195801675319672, -0.03126395866274834], [0.09275534749031067, -0.013026325032114983, 0.17773286998271942, -0.13193966448307037], [-0.20967969298362732, -0.017115948721766472, -0.17757143080234528, 0.01812584511935711], [0.07871062308549881, 0.025477077811956406, 0.20242245495319366, 0.052947863936424255], [0.0876290500164032, 0.02335488051176071, 0.2318909913301468, -0.018105842173099518], [-0.3111998736858368, -0.0684971958398819, -0.020384620875120163, 0.057466600090265274], [-0.33250248432159424, -0.062076132744550705, 0.03267374262213707, -0.013414614833891392], [-0.27730488777160645, 0.03883304446935654, -0.15871860086917877, -0.021947016939520836], [-0.19316208362579346, 0.011518782004714012, -0.09752398729324341, -0.022568034008145332], [0.30037954449653625, -0.0038915867917239666, 0.19957096874713898, -0.012048964388668537], [-0.3359571099281311, -0.02453736774623394, -0.04877590015530586, 0.054270289838314056], [-0.45514151453971863, 0.003211346920579672, -0.12663237750530243, 0.003597905859351158], [-0.26188284158706665, -0.0768597349524498, -0.028274644166231155, -0.004712976049631834], [0.19801552593708038, -0.014094064943492413, 0.30938735604286194, -0.027430955320596695], [0.216635063290596, -0.006032375618815422, 0.19466909766197205, 0.017877032980322838], [0.3452942967414856, 0.014313477091491222, 0.20717684924602509, 0.028891494497656822], [0.30714479088783264, -0.024852938950061798, 0.14282803237438202, -0.010045062750577927], [0.29332733154296875, 0.03375731036067009, 0.17190448939800262, 0.007365069817751646], [-0.216100811958313, -0.02326325885951519, -0.0782240554690361, 0.033413469791412354], [0.303622841835022, 0.009233406744897366, 0.09927830845117569, 0.0076203071512281895], [-0.17694036662578583, -0.044831227511167526, 0.04578011482954025, 0.07765035331249237], [0.30385544896125793, 0.01371354516595602, 0.09221556037664413, -0.007836796343326569], [0.14709250628948212, -0.019126825034618378, 0.27862370014190674, 0.036238234490156174], [-0.35105419158935547, -0.005704578012228012, -0.07886786013841629, 0.011745516210794449], [0.3268280625343323, -0.07307405769824982, -0.053754761815071106, 0.015984011813998222], [0.2989009916782379, -0.06040973216295242, 0.07950441539287567, 0.10861622542142868], [-0.09588460624217987, -0.027437454089522362, -0.1971968710422516, 0.05067674443125725], [-0.3197968900203705, 0.020187795162200928, -0.2120114266872406, -0.006126618944108486], [0.33156299591064453, -0.017052406445145607, 0.1512790471315384, -0.01099957525730133], [0.13661089539527893, 0.016893962398171425, 0.08930008858442307, 0.09845076501369476], [-0.0651450902223587, 0.03902745991945267, -0.1926482915878296, -0.07032080739736557], [0.11480195075273514, -0.044043947011232376, 0.19040577113628387, 0.04497285187244415], [0.35810840129852295, -0.061087146401405334, 0.2712290287017822, 0.056130532175302505], [-0.027433078736066818, 0.037180107086896896, 0.061792392283678055, 0.3508061468601227], [0.1235354095697403, -0.07309360802173615, 0.13862651586532593, 0.04313100129365921], [0.1560811996459961, -0.019226321950554848, 0.17053519189357758, -0.24836745858192444], [-0.21689732372760773, -0.03861914575099945, -0.08662284165620804, 0.12615375220775604], [0.18022216856479645, 0.05728389322757721, 0.3293294906616211, -0.048520345240831375], [-0.22911037504673004, 0.015318936668336391, -0.2741422951221466, 0.008526496589183807], [0.22472161054611206, 0.07844266295433044, 0.23075705766677856, 0.16450373828411102], [0.13624928891658783, 0.01842902973294258, 0.0567140094935894, 0.08620177954435349], [0.13346140086650848, 0.010752023197710514, -0.0698218122124672, 0.08694308251142502], [-0.06707774847745895, -0.07646578550338745, -0.1860087513923645, -0.11822475492954254], [-0.16448631882667542, 0.0571368932723999, 0.05160658806562424, 0.2608788013458252], [0.33950695395469666, -0.06001308187842369, 0.156094491481781, 0.13873568177223206], [0.23893636465072632, -0.08385097235441208, 0.15836042165756226, 0.03569134697318077], [0.24884070456027985, 0.15705710649490356, -0.13227170705795288, 0.045452821999788284], [-0.08940457552671432, 0.017655596137046814, -0.13965973258018494, -0.003355907741934061], [-0.20545630156993866, 0.00743533531203866, -0.19251807034015656, 0.13550147414207458], [0.1412656158208847, 0.01705382950603962, 0.07731425017118454, -0.030292527750134468], [0.2291392982006073, 0.0090620256960392, 0.2524314820766449, 0.05522763356566429], [-0.127022385597229, 0.08577695488929749, -0.06420496851205826, 0.2525548040866852], [-0.23646871745586395, -0.011091673746705055, -0.12784051895141602, 0.02486083097755909], [0.2935884892940521, 0.020912764593958855, 0.18822719156742096, 0.05485144257545471], [0.20450705289840698, -0.0293485838919878, -0.00308354664593935, 0.06420370936393738], [0.2755372226238251, -0.04229073226451874, 0.0022185705602169037, 0.056178610771894455], [-0.20726798474788666, -0.07900279760360718, 0.007966158911585808, 0.13763859868049622], [0.09240898489952087, 0.06978078186511993, 0.1558872014284134, 0.015051783062517643], [-0.03293372690677643, 0.05147140473127365, -0.2798829972743988, -0.02579990029335022], [0.12106256932020187, -0.07035749405622482, 0.1367691308259964, 0.019104834645986557], [-0.4425352215766907, 0.059074658900499344, -0.16555847227573395, 0.05305168777704239]]

Layer: lstm.weight_hh_l0
Values: [[-0.06917493790388107, -0.05106143280863762, -0.10079441219568253, 0.00011709730461006984, 0.07432994991540909, 0.07277597486972809, 0.09131748974323273, 0.17601990699768066, 0.06555993109941483, -0.2015235722064972, -0.1277306228876114, -0.02345431037247181, -0.03768082708120346, -0.06530285626649857, -0.03655719757080078, 0.09437906742095947, -0.10972046852111816, -0.15505766868591309, -0.027760950848460197, -0.22728398442268372, -0.1195521429181099, -0.07085507363080978, -0.09476526081562042, -0.11530230194330215, -0.10828401148319244, 0.12801675498485565, -0.11895319819450378, 0.02362668514251709, -0.0827847421169281, -0.16789978742599487, -0.019260166212916374, -0.13943980634212494], [0.42078182101249695, -0.1847211867570877, 0.15479673445224762, -0.348787397146225, -0.0597766675055027, -0.04235170781612396, 0.13777051866054535, 0.07335225492715836, -0.2440345138311386, 0.045155514031648636, -0.01669592410326004, -0.09761155396699905, -0.1106446161866188, 0.13713403046131134, 0.058999914675951004, -0.2299516201019287, 0.267765611410141, 0.24404852092266083, 0.028626324608922005, -0.019160231575369835, 0.029816430062055588, -0.12841582298278809, 0.17618685960769653, 0.04746163636445999, -0.025176582857966423, 0.10552364587783813, -0.26713401079177856, -0.10183018445968628, 0.1671348512172699, 0.1637870818376541, -0.0254965890198946, 0.04395822435617447], [-0.07586873322725296, -0.13067613542079926, 0.14854510128498077, -0.18218740820884705, -0.021115222945809364, -0.00500880554318428, -0.09876901656389236, -0.3301296532154083, -0.06487094610929489, 0.2911851406097412, -0.0007110406877472997, -0.049598194658756256, -0.08578107506036758, 0.29489725828170776, 0.06397763639688492, 0.06168799102306366, -0.022172071039676666, -0.045010682195425034, 0.038820941001176834, -0.21120727062225342, -0.2507178783416748, -0.018563134595751762, -0.10644084960222244, 0.2160264104604721, 0.07330749183893204, -0.060106515884399414, -0.14363352954387665, -0.24290451407432556, -0.07716427743434906, 0.18830157816410065, -0.08627825230360031, -0.22080031037330627], [-0.012243027798831463, 0.00418637041002512, -0.013461027294397354, 0.13827168941497803, 0.1333722472190857, 0.21656009554862976, 0.15748916566371918, 0.11275701969861984, -0.07224195450544357, -0.19512131810188293, -0.10720612853765488, -0.13466179370880127, 0.012802613899111748, -0.024293657392263412, -0.03474143519997597, -0.019925745204091072, 0.17583347856998444, -0.13071498274803162, 0.13534976541996002, 0.13204649090766907, 0.02038777805864811, -0.16998237371444702, 0.17043998837471008, 0.08165588229894638, -0.16064557433128357, 0.14191029965877533, -0.06087633594870567, 0.033236850053071976, -0.05845139920711517, -0.10473930090665817, 0.1154453307390213, 0.13246186077594757], [-0.1298656016588211, -0.09420235455036163, -0.1366509050130844, 0.04477003216743469, -0.1532529592514038, -0.20509009063243866, 0.001869476167485118, 0.1283411979675293, -0.2120889574289322, -0.06373056769371033, -0.200005441904068, -0.05993637070059776, -0.017471540719270706, -0.061313629150390625, 0.03536904230713844, -0.223440021276474, 0.07907300442457199, 0.005330215208232403, 0.001161718973889947, 0.02023763582110405, 0.15273214876651764, 0.013165082782506943, -0.06723406910896301, -0.012073688209056854, 0.11085321754217148, 0.16888758540153503, -0.17934668064117432, 0.15502813458442688, -0.08090522885322571, 0.18808798491954803, 0.024523001164197922, 0.1529291272163391], [0.24980098009109497, -0.14667178690433502, 0.05700278282165527, -0.07794611155986786, -0.15614053606987, -0.060520317405462265, -0.020139455795288086, -0.2692883014678955, -0.20183859765529633, 0.2201543003320694, -0.20405930280685425, 0.032152529805898666, 0.0807284414768219, 0.040156129747629166, 0.02434445172548294, 0.028470516204833984, -0.08445242047309875, 0.2002362161874771, -0.009459872730076313, -0.2737700045108795, 0.09063830971717834, -0.14519992470741272, -0.10409056395292282, -0.04526849463582039, 0.2332034409046173, 0.02137886919081211, -0.1392344832420349, -0.16715088486671448, 0.14809660613536835, 0.22533230483531952, 0.00026250211521983147, -0.0025713355280458927], [0.08645587414503098, -0.16489073634147644, 0.06817671656608582, 0.07851634174585342, 0.16891932487487793, -0.16757884621620178, 0.1634446531534195, -0.2528442144393921, -0.01863882876932621, 0.2115669995546341, 0.016603419557213783, 0.08491218835115433, 0.05921465903520584, 0.1565234363079071, -0.15285822749137878, -0.04283002018928528, -0.03168853744864464, 0.06774037331342697, -0.21393579244613647, -0.29064059257507324, 0.11220204085111618, 0.07289991527795792, 0.054311782121658325, 0.07422703504562378, -0.0875304639339447, 0.047105319797992706, 0.05889836698770523, 0.01710273139178753, 0.05843407288193703, 0.09153129160404205, 0.05357741191983223, -0.2776223123073578], [0.1781204640865326, 0.07724130153656006, 0.22013694047927856, -0.13471774756908417, -0.14920182526111603, -0.18488869071006775, 0.043982088565826416, -0.2093893587589264, -0.14157986640930176, -0.07746251672506332, -0.11076220870018005, 0.08122410625219345, 0.22947129607200623, 0.10489672422409058, 0.11810728907585144, -0.0684949979186058, 0.23307427763938904, -0.2237074226140976, -0.1643204241991043, 0.17111752927303314, 0.18976850807666779, 0.08350325375795364, -0.08457531780004501, -0.17463062703609467, 0.3115433156490326, 0.18048502504825592, 0.027582066133618355, -0.05449356883764267, -0.009540962986648083, 0.241479754447937, -0.06988260895013809, -0.0606268048286438], [0.15967898070812225, -0.08031459152698517, 0.07081158459186554, -0.06305929273366928, 0.04444556310772896, -0.14934611320495605, 0.14608529210090637, 0.08875035494565964, -0.13477277755737305, 0.03673601150512695, -0.09625592082738876, 0.014436104334890842, -0.07318147271871567, -0.15443818271160126, -0.18037660419940948, -0.21403491497039795, 0.07938500493764877, -0.0746345967054367, 0.03951049596071243, 0.08660303801298141, -0.04454629123210907, 0.07341258227825165, 0.12244188040494919, 0.05838644877076149, 0.13887479901313782, 0.19439397752285004, 0.006366822402924299, -0.22355736792087555, 0.14264242351055145, 0.17769216001033783, -0.23886147141456604, 0.10618598014116287], [0.26972776651382446, 0.004592561163008213, -0.03503705561161041, -0.08770681172609329, 0.0030798849184066057, 0.017250072211027145, 0.04948686808347702, -0.1832282394170761, -0.13097511231899261, -0.050554241985082626, -0.1358739286661148, 0.008939200080931187, -0.04791330546140671, 0.12534165382385254, -0.01688035950064659, 0.00963547732681036, -0.02789352461695671, 0.0920276865363121, -0.03314227610826492, 0.008972563780844212, 0.10978309065103531, 0.1368606686592102, 0.06941486895084381, -0.005466547794640064, -0.02900315821170807, -0.07916095107793808, -0.07030821591615677, 0.09654546529054642, 0.23969587683677673, 0.18740147352218628, 0.10074442625045776, 0.11942264437675476], [0.0884675532579422, -0.20075708627700806, 0.06977510452270508, -0.1769416332244873, 0.15975768864154816, 0.07480961829423904, 0.09693069010972977, -0.47225329279899597, 0.04688699170947075, 0.29851123690605164, -0.15575940907001495, 0.09047426283359528, -0.18732388317584991, 0.1701640784740448, -0.05807071924209595, -0.25332704186439514, 0.13921260833740234, 0.09194137901067734, -0.24465860426425934, -0.3429611921310425, 0.07822290807962418, -0.11826887726783752, -0.21323418617248535, 0.4289668798446655, 0.18385684490203857, 0.0667242482304573, 0.09079062193632126, -0.45035168528556824, 0.24790653586387634, 0.31636762619018555, -0.03777872398495674, -0.34866705536842346], [-0.11566434800624847, -0.020076891407370567, -0.0905415490269661, -0.06028125062584877, 0.13725166022777557, 0.07226704061031342, 0.036359697580337524, -0.14140136539936066, 0.07041490823030472, 0.077053964138031, 0.07660946995019913, 0.046796176582574844, -0.04588646814227104, 0.20216862857341766, 0.07292190939188004, -0.059167150408029556, 0.1833675354719162, -0.1292174607515335, -0.0662585124373436, -0.1774836629629135, -0.07011470943689346, 0.0734575092792511, 0.020438602194190025, 0.24394045770168304, 0.17126210033893585, 0.15558184683322906, 0.06527465581893921, -0.2596965730190277, 0.13118517398834229, 0.0386120043694973, -0.0211133174598217, -0.20037265121936798], [0.08869249373674393, -0.36277782917022705, -0.0031383454333990812, -0.1602245271205902, 0.09060964733362198, 0.06661181151866913, 0.012882729060947895, -0.5379119515419006, -0.35729655623435974, 0.270682156085968, -0.028702575713396072, -0.30823126435279846, -0.16708557307720184, 0.14280922710895538, 0.07839415222406387, -0.3199394941329956, 0.17407187819480896, 0.29293206334114075, -0.17628103494644165, -0.23060248792171478, 0.08642084896564484, -0.36699846386909485, -0.19517174363136292, 0.34502288699150085, 0.03485340625047684, 0.16892780363559723, -0.2231006771326065, -0.4802391529083252, 0.25183093547821045, 0.22358697652816772, 0.0406663715839386, -0.4260559380054474], [0.13460662961006165, 0.008966785855591297, 0.08480670303106308, -0.14868411421775818, 0.1654357612133026, 0.017609303817152977, 0.10608228296041489, 0.10662182420492172, -0.31036531925201416, 0.08385507017374039, -0.22994208335876465, -0.26896607875823975, -0.15085512399673462, 0.1354673206806183, -0.20075024664402008, 0.010302022099494934, 0.1755765825510025, -0.11342504620552063, -0.09242371469736099, -0.0286624226719141, 0.227962926030159, -0.24968230724334717, 0.16616512835025787, 0.004249779507517815, 0.20488454401493073, 0.25592297315597534, 0.008702102117240429, 0.014665725640952587, 0.09165875613689423, 0.18821930885314941, -0.1628948152065277, 0.11299443244934082], [0.2770180106163025, -0.19609710574150085, 0.03609593212604523, -0.5548779368400574, 0.5183737277984619, 0.00039197783917188644, 0.0812133327126503, -0.23423731327056885, -0.48209071159362793, 0.289113312959671, -0.015534456819295883, -0.3069390654563904, 0.01923931948840618, 0.07141171395778656, -0.09390460699796677, -0.27989065647125244, -0.004728106781840324, 0.22019977867603302, -0.3621338903903961, -0.3465045392513275, 0.20167043805122375, -0.43899616599082947, -0.1462755799293518, 0.20233438909053802, 0.20943287014961243, -0.09720172733068466, -0.41694876551628113, -0.1044200211763382, 0.46341413259506226, 0.24459700286388397, -0.2584323585033417, -0.42011499404907227], [-0.17744140326976776, -0.10929325968027115, 0.14780887961387634, 0.09530486166477203, 0.026261186227202415, 0.18004658818244934, 0.1767452210187912, -0.026028167456388474, -0.10678000003099442, 0.259863018989563, -0.1641664206981659, 0.19880087673664093, 0.04810836911201477, 0.08454124629497528, -0.03964207321405411, 0.21642789244651794, -0.08702434599399567, -0.13692188262939453, -0.20987087488174438, -0.16508837044239044, 0.024335172027349472, -0.11983956396579742, -0.28130489587783813, 0.31416040658950806, -0.03800659999251366, -0.027240777388215065, 0.1747770756483078, -0.0917772650718689, 0.1328689008951187, 0.21378742158412933, 0.10023123770952225, -0.041465453803539276], [0.06552701443433762, -0.047460246831178665, 0.016093799844384193, 0.03294641152024269, -0.0596173070371151, 0.029265057295560837, 0.10041143745183945, -0.047567084431648254, 0.022511528804898262, -0.05805831402540207, -0.09845928847789764, 0.04129667580127716, 0.08719214051961899, 0.1286735236644745, 0.0948375016450882, 0.016825644299387932, -0.06580177694559097, 0.16652359068393707, 0.12868939340114594, -0.2007313221693039, 0.21648980677127838, -0.17671117186546326, -0.07158935070037842, 0.1305079609155655, 0.011789078824222088, 0.2546713948249817, -0.1856801062822342, -0.09418176859617233, -0.03530507907271385, 0.11415886878967285, -0.031079018488526344, 0.038822684437036514], [0.08183730393648148, -0.09805367887020111, 0.048164647072553635, -0.03076762892305851, 0.08773300051689148, 0.05684273689985275, -0.11624474078416824, -0.4871656000614166, -0.16635607182979584, 0.38830438256263733, -0.004512428306043148, -0.08360658586025238, 0.11883258819580078, 0.13515061140060425, -0.1450107842683792, -0.05538398027420044, 0.11597339063882828, -0.09482808411121368, -0.07825949788093567, -0.32317808270454407, -0.03408671170473099, -0.16825196146965027, -0.19913959503173828, 0.36461079120635986, -0.0005721368361264467, -0.0605163648724556, -0.14732255041599274, -0.31155309081077576, 0.08217500895261765, 0.2149846851825714, -0.025232234969735146, -0.17203623056411743], [0.26819080114364624, -0.16195939481258392, 0.14105179905891418, -0.4149574935436249, 0.17984971404075623, -0.121317557990551, 0.2348150610923767, -0.2638782858848572, -0.10895276814699173, 0.23349297046661377, 0.04140426963567734, 0.037092287093400955, -0.19427959620952606, -0.06858546286821365, 0.21773865818977356, -0.28364241123199463, -0.03738333657383919, 0.14884762465953827, -0.08222437649965286, 0.04230537638068199, 0.0005289248656481504, -0.0810522735118866, -0.05616682395339012, 0.296049028635025, -0.03593700751662254, 0.13428239524364471, -0.09275450557470322, -0.08613384515047073, -0.07623784989118576, -0.009695741347968578, 0.11554348468780518, -0.03869291767477989], [0.15487916767597198, 0.06978249549865723, -0.0536433607339859, -0.24976681172847748, 0.21866708993911743, 0.019759783521294594, -0.09953711181879044, 0.06142450496554375, -0.2276066690683365, -0.04863600805401802, 0.0020708765368908644, -0.09233447909355164, 0.13484123349189758, -0.16567815840244293, 0.03433336690068245, -0.23308615386486053, -0.02791435457766056, -0.01306077279150486, 0.13774961233139038, 0.1366804838180542, -0.08932779729366302, -0.02240217849612236, 0.09942635893821716, -0.09203869104385376, 0.13893194496631622, -0.02410079538822174, -0.06663451343774796, 0.08881670236587524, 0.35255756974220276, -0.0057775843888521194, -0.0029858676716685295, -0.12490923702716827], [-0.0495285764336586, -0.11895808577537537, -0.022030266001820564, -0.25228744745254517, 0.007234241813421249, -0.21656905114650726, 0.052467379719018936, 0.06206343695521355, -0.0353073887526989, -0.013382542878389359, -0.19491557776927948, -0.06344792246818542, 0.005986765958368778, 0.1931142807006836, -0.022484544664621353, -0.11896759271621704, 0.10961265116930008, 0.1913287490606308, -0.05914748087525368, 0.04735153540968895, -0.12483454495668411, -0.14276181161403656, -0.21595798432826996, 0.17552855610847473, 0.11218446493148804, -0.04775882512331009, -0.02573690563440323, -0.23322981595993042, 0.12629929184913635, 0.14306311309337616, -0.12822087109088898, 0.07789125293493271], [-0.04634803533554077, -0.24885864555835724, -0.026948118582367897, 0.16332346200942993, -0.13933318853378296, 0.13649685680866241, 0.17709845304489136, 0.00753377191722393, -0.08895186334848404, -0.011015131138265133, -0.04128300026059151, 0.1253681480884552, -0.21580086648464203, 0.172847181558609, 0.0023129391483962536, -0.0914875939488411, -0.03636375069618225, 0.10694435983896255, -0.18111552298069, -0.052577804774045944, -0.28075477480888367, 0.0363423153758049, -0.1863543689250946, -0.06055110692977905, 0.15454167127609253, -0.20694351196289062, 0.21520701050758362, 0.003039219416677952, -0.09886538982391357, 0.2711949348449707, 0.15254738926887512, -0.1563175916671753], [0.20264016091823578, -0.2539742588996887, -0.03828446939587593, -0.3166261911392212, 0.27640002965927124, -0.09594632685184479, 0.015709925442934036, 0.03519788756966591, -0.4460947513580322, 0.007638528011739254, -0.056698355823755264, -0.2083376795053482, -0.162388876080513, 0.042160529643297195, -0.0491875484585762, -0.15575538575649261, 0.23316451907157898, -0.12315335869789124, -0.24863682687282562, 0.008780655451118946, 0.03850097954273224, -0.17265118658542633, 0.0017062604892998934, 0.25414812564849854, 0.35378119349479675, -0.10906945914030075, -0.20616096258163452, 0.03716173768043518, 0.07147439569234848, 0.012368448078632355, 0.08389987051486969, 0.041871458292007446], [-0.1412172019481659, 0.09949872642755508, 0.18818040192127228, 0.013575802557170391, 0.01224476471543312, 0.019089866429567337, 0.11157173663377762, 0.023043986409902573, -0.18723642826080322, 0.11503603309392929, 0.12599526345729828, 0.026770664379000664, -0.131608247756958, -0.1562613695859909, -0.11013482511043549, 0.22016873955726624, -0.09963364154100418, 0.11743482947349548, -0.0625038743019104, 0.1243581473827362, -0.16197919845581055, 0.1948440670967102, 0.06537378579378128, -0.18573880195617676, 0.06520343571901321, 0.2205118089914322, 0.14399808645248413, 0.020191162824630737, -0.07804196327924728, 0.1318657249212265, 0.04358237609267235, 0.036738812923431396], [0.192413330078125, 0.0512666255235672, 0.16192883253097534, 0.032259680330753326, -0.08628540486097336, -0.041819728910923004, 0.04524032026529312, -0.04472048208117485, -0.06326985359191895, 0.047986146062612534, -0.2087002843618393, 0.1194741502404213, 0.17692837119102478, -0.11252045631408691, -0.13435234129428864, 0.09326137602329254, -0.006302087567746639, 0.276376873254776, -0.1475677490234375, -0.21798886358737946, -0.013646269217133522, -0.0025051161646842957, -0.06687361001968384, 0.01371025200933218, 0.03241489455103874, -0.09383710473775864, 0.06312751770019531, 0.04305320233106613, 0.15106721222400665, -0.06492897123098373, 0.04934276267886162, 0.026169944554567337], [0.22765527665615082, -0.06512514501810074, -0.21989013254642487, -0.16253285109996796, 0.06556881219148636, 0.12945261597633362, 0.16935567557811737, -0.19917291402816772, -0.08785533905029297, 0.23546263575553894, -0.21561653912067413, 0.007232693023979664, -0.2451222687959671, 0.2081819325685501, -0.028077246621251106, -0.08864567428827286, -0.017898239195346832, 0.009250220842659473, -0.13773870468139648, -0.1404922753572464, 0.06927834451198578, -0.16289649903774261, -0.04910646378993988, 0.21344056725502014, -0.020282285287976265, 0.1275598704814911, -0.010832349769771099, -0.2609492540359497, -0.059876732528209686, 0.231265589594841, 0.07438545674085617, -0.24836327135562897], [0.05681462213397026, -0.0992196723818779, 0.06167798116803169, -0.15008464455604553, 0.1403462439775467, 0.23543062806129456, 0.03105032444000244, -0.1553112417459488, -0.10299891978502274, 0.1694621741771698, 0.007208602502942085, 0.06901807337999344, 0.07416816800832748, 0.16756516695022583, -2.529891935409978e-05, 0.009918837808072567, -0.14535464346408844, -0.03311855345964432, -0.23423218727111816, -0.045909393578767776, -0.14024975895881653, 0.09827017784118652, -0.2220928817987442, 0.15688453614711761, -0.08696338534355164, -0.0970456525683403, 0.12750138342380524, 0.03632687032222748, 0.14637120068073273, 0.2394086718559265, 0.04099928215146065, -0.29947951436042786], [0.2203681915998459, 0.11656545847654343, 0.15974445641040802, -0.3387671113014221, 0.028175868093967438, -0.08843694627285004, 0.02458621747791767, -0.06631064414978027, -0.16240131855010986, -0.02257111296057701, -0.09713050723075867, 0.06422305852174759, 0.07389527559280396, 0.15300685167312622, -0.031043710187077522, -0.18928471207618713, 0.24837243556976318, -0.10020500421524048, -0.037111762911081314, 0.023518143221735954, -0.16670815646648407, -0.004160623997449875, 0.023935845121741295, -0.06074987351894379, 0.4157581627368927, 0.10361287742853165, -0.11686927825212479, 0.1445794254541397, 0.1341216117143631, 0.09150251001119614, -0.1403598189353943, -0.04434450715780258], [0.045162271708250046, 0.057981353253126144, 0.17348763346672058, -0.18229995667934418, -0.15344084799289703, 0.1923130452632904, 0.05831476300954819, -0.09778764098882675, 0.060373663902282715, -0.02687227912247181, -0.020848968997597694, 0.19010944664478302, -0.02926749549806118, 0.08162252604961395, 0.0561336912214756, -0.1412094086408615, -0.09352552145719528, 0.1125338226556778, 0.13569466769695282, -0.08503547310829163, -0.13334259390830994, 0.034239839762449265, 0.07164427638053894, 0.09139414131641388, 0.1688094288110733, 0.10457655787467957, -0.07700347155332565, -0.15946905314922333, 0.07067154347896576, 0.2033413052558899, 0.044011231511831284, -0.02763868309557438], [0.014167246408760548, 0.052612025290727615, -0.1481052041053772, -0.178542360663414, 0.07297088950872421, -0.03637199103832245, -0.04376964271068573, -0.0321180634200573, -0.20707282423973083, -0.19409207999706268, 0.07141682505607605, -0.05811780318617821, 0.12301383912563324, -0.07058127224445343, 0.029560958966612816, 0.2365061491727829, 0.22456523776054382, -0.06523430347442627, -0.13164974749088287, -0.05222071334719658, 0.13472668826580048, 0.06927791237831116, 0.08509289473295212, 0.02535429783165455, 0.16223272681236267, 0.051812343299388885, 0.12723813951015472, 0.12463507056236267, -0.12266947329044342, 0.1517069786787033, -0.1303844004869461, 0.09498338401317596], [0.178714781999588, -0.05027220398187637, -0.1260402947664261, -0.13229472935199738, -0.05117650702595711, 0.0902940109372139, -0.04119635373353958, -0.23691105842590332, -0.19971665740013123, 0.14470994472503662, -0.05052059143781662, -0.04475625976920128, -0.05696963891386986, 0.0012172459391877055, 0.22311820089817047, 0.035644810646772385, 0.008527648635208607, -0.08847714215517044, -0.0926520824432373, -0.28833314776420593, 0.0128331882879138, -0.15760158002376556, -0.18386401236057281, 0.08211522549390793, 0.14867964386940002, -0.0738641545176506, -0.07878242433071136, -0.17937272787094116, 0.14199984073638916, 0.20866550505161285, 0.12017077952623367, -0.31196123361587524], [0.01157468929886818, 0.09984450787305832, -0.032755423337221146, -0.12249895185232162, -0.1749780774116516, -0.15961705148220062, -0.00579459872096777, -0.07853345572948456, -0.07022049278020859, -0.08732428401708603, -0.1880953013896942, -0.1882300227880478, -0.11717735975980759, 0.0777701735496521, -0.13666515052318573, -0.1553374081850052, -0.03477666527032852, 0.06908135116100311, -0.16094309091567993, -0.17667874693870544, -0.10887760668992996, 0.11941974610090256, -0.08310194313526154, 0.10625091940164566, 0.09058748930692673, -0.190630242228508, 0.01569673791527748, 0.1265784054994583, 0.15222923457622528, -0.07394978404045105, -0.1363419145345688, -0.002972764428704977], [-0.016209864988923073, -0.06529035419225693, -0.02563820779323578, 0.06642322987318039, 0.1402585208415985, -0.022929446771740913, 0.1481858789920807, 0.25475847721099854, -0.16120408475399017, 0.17369268834590912, 0.12640680372714996, -0.12457992881536484, 0.1269083470106125, -0.05191439390182495, 0.0218723826110363, -0.13797400891780853, -0.1150452271103859, 0.022668976336717606, -0.16722866892814636, 0.12347406893968582, -0.12249454110860825, 0.14701157808303833, -0.025176208466291428, 0.03727852925658226, 0.14154788851737976, 0.13778361678123474, -0.1333656758069992, -0.12259169667959213, 0.028492411598563194, -0.058268193155527115, -0.03572319820523262, 0.13733947277069092], [0.06758038699626923, 0.11597524583339691, 0.10820929706096649, -0.24397483468055725, -0.06478913873434067, -0.12267183512449265, -0.03428884223103523, 0.09017147123813629, -0.08600986003875732, 0.15479539334774017, -0.08462940156459808, -0.0967705249786377, 0.04364020377397537, 0.10291261225938797, 0.22200338542461395, -0.10336481779813766, -0.1543474793434143, 0.0650978684425354, -0.010229889303445816, -0.042819418013095856, 0.00570455938577652, 0.2123122662305832, -0.1647704392671585, 0.16344308853149414, 0.12806977331638336, 0.10332754999399185, 0.06925924122333527, 0.1417197585105896, -0.15877088904380798, 0.08881937712430954, 0.06131218746304512, 0.052295565605163574], [-0.05013245716691017, -0.04152793437242508, -0.095884308218956, -0.13345913589000702, -0.07948998361825943, 0.21283699572086334, 0.1636122316122055, 0.15859967470169067, -0.1712944656610489, 0.2530064880847931, -0.11901628971099854, 0.05708613619208336, 0.08300457149744034, 0.17379404604434967, 0.23040136694908142, 0.04805769771337509, 0.048559512943029404, 0.14068292081356049, -0.18717436492443085, 0.044128578156232834, -0.11552983522415161, 0.12531906366348267, -0.28300613164901733, -0.06995956599712372, 0.11677047610282898, -0.18524712324142456, -0.08615370094776154, -0.07226116955280304, 0.022110259160399437, -0.04428405314683914, 0.03951976075768471, 0.039536986500024796], [-0.12259601801633835, -0.07019448280334473, -0.138670414686203, 0.0640721544623375, -0.1285187155008316, 0.02617708221077919, 0.09604564309120178, 0.22850444912910461, 0.1253039538860321, -0.16043506562709808, -0.08438514918088913, -0.14309251308441162, -0.017324814572930336, -0.04762350395321846, -0.06530781835317612, -0.026209618896245956, 0.09177345037460327, 0.1731855720281601, 0.007406216114759445, -0.18147939443588257, 0.018530577421188354, 0.09191527217626572, 0.02760850265622139, 0.1676575243473053, 0.01887248270213604, -0.017275141552090645, -0.0313258022069931, -0.19846948981285095, 0.018419397994875908, -0.10413794219493866, 0.013924894854426384, -0.11025781184434891], [-0.04918226972222328, 0.08135336637496948, -0.17404748499393463, -0.13527707755565643, 0.058103062212467194, -0.005669009871780872, -0.004446007777005434, 0.0007830022950656712, -0.040970705449581146, -0.1343104988336563, 0.08857620507478714, -0.04015170410275459, 0.13063494861125946, -0.08590520918369293, 0.03440359607338905, 0.11872182041406631, 0.08970458805561066, -0.08968240767717361, -0.06884809583425522, 0.21263734996318817, 0.021605050191283226, -0.021999306976795197, 0.16895738244056702, -0.027379659935832024, 0.03538540005683899, 0.03213312104344368, 0.1786014437675476, 0.06022989749908447, -0.08455067873001099, -0.15049701929092407, -0.02748854272067547, 0.29410073161125183], [0.019509809091687202, -0.060183100402355194, 0.13152572512626648, -0.3433488607406616, -0.18208906054496765, -0.12775032222270966, 0.12547050416469574, -0.2513037919998169, -0.14863832294940948, 0.02034873142838478, -0.18424780666828156, 0.009691106155514717, -0.12378197908401489, 0.11336226016283035, 0.09119408577680588, -0.2887828052043915, 0.17952021956443787, 0.08018655329942703, 0.04310579225420952, -0.00961203034967184, -0.03617202118039131, 0.21309056878089905, 0.0017215812113136053, 0.07490719854831696, 0.23458440601825714, 0.22788642346858978, -0.1748543381690979, -0.10404874384403229, 0.19649125635623932, 0.14224904775619507, -0.2371470034122467, 0.0017419704236090183], [0.1731855571269989, -0.12148633599281311, 0.17222775518894196, 0.14692816138267517, 0.18060629069805145, 0.05813541263341904, -0.08478780090808868, 0.3161529004573822, 0.0214826799929142, 0.24175575375556946, 0.11651290208101273, -0.19933781027793884, 0.19604383409023285, -0.18958529829978943, 0.12942491471767426, -0.13443364202976227, -0.08360147476196289, 0.003919214941561222, -0.08876921236515045, -0.1844513863325119, 0.13477937877178192, 0.1493859738111496, -0.10802342742681503, -0.15007027983665466, 0.18232722580432892, 0.027278058230876923, 0.008499955758452415, -0.027972349897027016, -0.0959632396697998, -0.1145375519990921, -0.020966755226254463, -0.1419631838798523], [0.2212006002664566, 0.10492397844791412, -0.07413523644208908, -0.140297070145607, -0.1100977435708046, -0.1661062389612198, -0.0037710426840931177, -0.060627855360507965, -0.011660668067634106, -0.06911875307559967, 0.08907090872526169, -0.08936770260334015, 0.07268601655960083, -0.1132725328207016, 0.009000709280371666, 0.06909511238336563, 0.037461258471012115, -0.3353743553161621, -0.16646572947502136, -0.04557932913303375, -0.05071911960840225, 0.23122669756412506, -0.19338057935237885, -0.10959508270025253, 0.0318223312497139, -0.19645066559314728, 0.1799408197402954, -0.07415823638439178, -0.1722611039876938, 0.004995744675397873, -0.14074799418449402, 0.05874858424067497], [0.02367992326617241, -0.055782970041036606, -0.04600436985492706, -0.107052281498909, 0.0009342055418528616, 0.034439973533153534, 0.2028511017560959, 0.1625191569328308, -0.11578960716724396, -0.31821268796920776, -0.24912378191947937, 0.05967191979289055, 0.1257120668888092, -0.2743602693080902, -0.05952629819512367, -0.007050841115415096, 0.2041940987110138, -0.10651614516973495, 0.0363272987306118, 0.2580544650554657, -0.1087154969573021, -0.16851112246513367, 0.16423046588897705, -0.19758403301239014, 0.06637091934680939, 0.016481537371873856, -0.0929337665438652, 0.004904455505311489, -0.0641096830368042, -0.155829057097435, -0.1605551689863205, 0.2891699969768524], [0.06598860025405884, 0.09231606870889664, 0.12323253601789474, -0.11393953114748001, -0.0162091962993145, -0.02165072411298752, -0.0406990684568882, -0.043764468282461166, -0.061594828963279724, -0.09194525331258774, -0.07456822693347931, 0.11226093769073486, 0.016045372933149338, -0.09231673181056976, 0.008294528350234032, -0.14934958517551422, -0.12201064079999924, -0.15826286375522614, -0.14930830895900726, -0.03491683304309845, -0.08549682796001434, 0.21395732462406158, -0.05502834916114807, 0.17124390602111816, 0.14978352189064026, -0.13881906867027283, -0.09213438630104065, -0.035493843257427216, -0.009263135492801666, 0.23725393414497375, -0.0017645611660555005, -0.006153854541480541], [-0.030396418645977974, -0.1088029071688652, 0.01040297094732523, 0.08725601434707642, 0.06830865144729614, 0.11024289578199387, 0.09817585349082947, 0.1414460688829422, -0.15357251465320587, 0.15295767784118652, -0.04138465225696564, -0.10874560475349426, -0.028159942477941513, 0.007410217542201281, 0.18430009484291077, -0.03956440091133118, 0.12987372279167175, 0.04572725296020508, -0.21547900140285492, -0.004694127477705479, -0.19520211219787598, -0.11240505427122116, -0.027576543390750885, 0.11156532168388367, 0.14582444727420807, -0.0500614196062088, -0.009164677001535892, -0.16589008271694183, -0.19436271488666534, 0.08601842075586319, -0.03493555635213852, 0.07250862568616867], [0.11603845655918121, -0.03034869208931923, 0.03684170916676521, 0.1568153351545334, 0.06379442662000656, -0.06740770488977432, -0.07158338278532028, 0.11367453634738922, 0.04906105995178223, 0.13517311215400696, 0.0711391344666481, -0.07013805955648422, -0.22468146681785583, 0.10570530593395233, 0.004212960600852966, -0.1098209097981453, -0.05517135187983513, 0.06637520343065262, -0.12698423862457275, -0.1780172735452652, -0.03443247079849243, 0.03165614604949951, -0.14974595606327057, -0.004575457889586687, 0.1358204483985901, -0.013368258252739906, 0.15365749597549438, -0.04715995118021965, -0.06350431591272354, 0.06401316076517105, -0.1684047132730484, -0.05345403030514717], [0.09329956024885178, 0.07839778810739517, 0.2526610195636749, -0.15696029365062714, -0.08725173026323318, -0.09029925614595413, 0.24099725484848022, 0.14615057408809662, -0.04732136055827141, -0.017826735973358154, -0.017542170360684395, 0.033589866012334824, 0.12311903387308121, 0.14332011342048645, 0.14131613075733185, 0.04014182463288307, -0.06736896187067032, 0.25872454047203064, -0.11835000663995743, -0.032026417553424835, -0.188517764210701, 0.1380702555179596, -0.11154729127883911, 0.21721161901950836, 0.22188761830329895, 0.015418641269207, -0.1114388182759285, -0.1759788990020752, 0.16116799414157867, 0.049172207713127136, 0.06070545315742493, -0.20183047652244568], [0.16365261375904083, -0.11240527778863907, 0.13563351333141327, -0.0592002235352993, -0.15352508425712585, 0.025215622037649155, 0.06253938376903534, 0.13530579209327698, -0.2771850824356079, -0.15084291994571686, -0.11652099341154099, 0.01995231956243515, -0.0028453562408685684, 0.0875992625951767, 0.1293160319328308, -0.05990010127425194, 0.12519791722297668, 0.16417494416236877, 0.05564820393919945, -0.15549024939537048, -0.015643101185560226, 0.17686082422733307, -0.05328083783388138, 0.18630927801132202, 0.0904054120182991, 0.008406770415604115, 0.09822256118059158, -0.08719370514154434, -0.10381750762462616, 0.0967555120587349, -0.056471120566129684, 0.0006209667189978063], [0.038051705807447433, -0.24379214644432068, -0.1721150428056717, 0.11023703217506409, 0.10481567680835724, 0.04725223779678345, 0.01675357110798359, -0.10238131135702133, -0.2013302445411682, 0.18739548325538635, 0.07661881297826767, 0.18011730909347534, -0.15202492475509644, -0.1277753710746765, -0.07437122613191605, -0.0498773492872715, 0.14070488512516022, -0.008478169329464436, -0.10438767820596695, -0.11332397907972336, -0.1330021172761917, 0.22887355089187622, -0.1342163383960724, -0.10114926844835281, 0.11883845925331116, -0.1315440535545349, 0.15034189820289612, 0.07103568315505981, -0.07584501057863235, 0.25164109468460083, -0.1564890295267105, -0.06859791278839111], [-0.0007666537421755493, -0.03523173928260803, 0.08450697362422943, 0.06160963699221611, 0.11482130736112595, 0.02858899161219597, 0.18893563747406006, 0.05202894285321236, 0.09600717574357986, -0.09245557337999344, 0.09703943878412247, -0.03995421156287193, 0.03062329813838005, 0.22189076244831085, 0.098542220890522, 0.03856845945119858, -0.14493314921855927, -0.02402356080710888, 0.10670477151870728, -0.02493477240204811, 0.06619527190923691, 0.10101523250341415, -0.15363885462284088, 0.1749418079853058, 0.08653158694505692, 0.07463061809539795, 0.07047361135482788, -0.1201043650507927, -0.08601824939250946, -0.028401847928762436, 0.08194410055875778, -0.09187333285808563], [0.1946951299905777, -0.2322048395872116, 0.1834602802991867, -0.13408859074115753, 0.09893737733364105, 0.03970745578408241, 0.06531786173582077, 0.09489896893501282, -0.13311241567134857, 0.05378933250904083, -0.22592464089393616, -0.09322209656238556, -0.0952233150601387, 0.19226190447807312, -0.13282528519630432, 0.024186231195926666, 0.15109683573246002, 0.2518250048160553, -0.16709810495376587, -0.08874931186437607, 0.010744655504822731, -0.013663136400282383, 0.06734514981508255, 0.059941262006759644, 0.1791864037513733, -0.0420934334397316, 0.09331696480512619, 0.0883253663778305, 0.06967291980981827, 0.21969982981681824, -0.09023866802453995, 0.011648130603134632], [0.11368798464536667, -0.19269321858882904, 0.1239408627152443, -0.14702430367469788, 0.1402132362127304, -0.10824106633663177, 0.11136721074581146, 0.016825908794999123, -0.19527076184749603, 0.19523239135742188, -0.12457038462162018, 0.057195644825696945, 0.1515624076128006, 0.16125930845737457, 0.11131895333528519, -0.06089572608470917, 0.13483184576034546, 0.08766487240791321, 0.0008661623578518629, 0.03946066275238991, -0.0622374452650547, -0.0399208702147007, -0.19220410287380219, -0.08356773853302002, -0.0622953400015831, 0.17556963860988617, 0.12804362177848816, 0.035180848091840744, 0.13356167078018188, 0.020404774695634842, -0.06190136820077896, -0.23364652693271637], [0.2504138648509979, 0.05269424617290497, -0.06291326135396957, 0.02259276621043682, 0.053362343460321426, 0.12266243994235992, 0.2224102020263672, -0.08177870512008667, -0.13451795279979706, 0.19408027827739716, 0.03894598409533501, 0.11641259491443634, -0.046871405094861984, -0.0659540519118309, 0.16366039216518402, 0.023803770542144775, 0.16089020669460297, -0.05890197679400444, -0.1009015366435051, 0.16012945771217346, 0.048806533217430115, 0.24774514138698578, -0.13487492501735687, 0.05273468792438507, -0.1587107628583908, 0.03042818419635296, 0.0586133748292923, -0.061639510095119476, -0.004674945492297411, -0.04284526780247688, -0.13688400387763977, -0.08907046169042587], [-0.0659765750169754, 0.08435123413801193, -0.10994759202003479, -0.027823355048894882, -0.12150634825229645, -0.16013766825199127, -0.08734522759914398, 0.14856493473052979, 0.08157868683338165, 0.17345459759235382, -0.06930004805326462, 0.06661178916692734, -0.06684645265340805, 0.12969070672988892, 0.11877458542585373, 0.1988520473241806, -0.1125839352607727, -0.28313660621643066, 0.08043169230222702, 0.1636349856853485, 0.1536087840795517, -0.026012428104877472, 0.008060560561716557, -0.02986745908856392, 0.19585976004600525, 0.037545301020145416, -0.18916693329811096, 0.03814984858036041, 0.1845628321170807, -0.16043223440647125, 0.05175337567925453, -0.013082255609333515], [0.11637430638074875, -0.0027715337928384542, -0.056730061769485474, -0.06128246337175369, 0.12399016320705414, 0.09775818884372711, -0.05145391449332237, -0.15033328533172607, -0.2483646273612976, 0.17934498190879822, -0.11595377326011658, -0.0853932574391365, 0.029632026329636574, -0.019989503547549248, 0.09139857441186905, -0.09464413672685623, -0.024188896641135216, -0.026944050565361977, 0.019685892388224602, 0.12171163409948349, -0.10544946789741516, 0.03853448107838631, -0.11513376235961914, -0.05577589198946953, 0.16675545275211334, -0.018405741080641747, -0.17589034140110016, -0.0464494526386261, -0.03330780193209648, -0.09657780081033707, 0.08136412501335144, 0.10434754192829132], [-0.21192584931850433, -0.12332580238580704, -0.07656121999025345, -0.04754934459924698, 0.07805220782756805, 0.007177809718996286, 0.21030600368976593, -0.2283942699432373, -0.13074620068073273, 0.01662560924887657, -0.11683984100818634, 0.23173587024211884, -0.2852957248687744, -0.0184404868632555, 0.10035625100135803, 0.0608963817358017, -0.18696175515651703, -0.039067644625902176, -0.13944783806800842, 0.016772300004959106, -0.10503225028514862, 0.20493024587631226, -0.07703399658203125, 0.09061701595783234, 0.18620747327804565, -0.0715818852186203, 0.21562203764915466, -0.27217650413513184, -0.32126790285110474, 0.2835496664047241, 0.013364688493311405, 0.03245782479643822], [0.2827207148075104, -0.007119535468518734, -0.10985660552978516, -0.08915195614099503, 0.0056219263933598995, -0.20069342851638794, 0.24387624859809875, -0.15929219126701355, -0.1674167513847351, 0.10748713463544846, -0.11908913403749466, 0.12499944120645523, -0.1728227287530899, -0.14902865886688232, 0.07715198397636414, 0.014632722362875938, 0.0886240154504776, -0.26980459690093994, -0.06753422319889069, -0.15262719988822937, 0.024755077436566353, 0.010898027569055557, -0.09314730763435364, 0.1333133429288864, -0.009898463264107704, 0.036467596888542175, -0.21622174978256226, -0.04216118901968002, -0.18534177541732788, -0.04234256222844124, -0.020191751420497894, -0.0246712826192379], [0.10570423305034637, 0.06185105815529823, 0.08085449039936066, -0.17268499732017517, -0.2729514539241791, 0.015031805261969566, 0.1334177404642105, -0.13240794837474823, 0.14316096901893616, -0.023781294003129005, -0.07960937917232513, -0.05160458758473396, -0.07617979496717453, 0.04953036457300186, 0.11045699566602707, 0.20457656681537628, 0.05126555263996124, 0.10420233756303787, 0.014602013863623142, -0.23198950290679932, 0.10251627117395401, -0.054884351789951324, 0.03214891254901886, -0.038530997931957245, 0.1587335169315338, 0.08800140768289566, -0.0924028530716896, 0.11073345690965652, 0.11941342055797577, 0.3602339029312134, 0.009052218869328499, -0.11756663769483566], [0.19234178960323334, 0.04410070553421974, 0.09864728897809982, 0.11224967241287231, -0.0318593829870224, -0.1625204235315323, 0.12154917418956757, 0.1404857486486435, -0.12999936938285828, -0.1291559338569641, -0.11247065663337708, 0.027431806549429893, 0.29257678985595703, 0.11116250604391098, -0.11435360461473465, 0.11727602779865265, 0.19896629452705383, 0.015995554625988007, 0.048651739954948425, 0.1908702701330185, -0.0874752327799797, 0.04926788806915283, 0.3681867718696594, -0.03531843051314354, 0.13122574985027313, -0.03928626328706741, 0.06941591948270798, 0.16221340000629425, -0.07581251114606857, -0.35539475083351135, -0.07649373263120651, 0.1337425410747528], [0.13377830386161804, -0.055293161422014236, 0.03984561935067177, 0.015350391156971455, 0.06390278786420822, 0.06331706047058105, 0.18130441009998322, 0.058369312435388565, -0.24679692089557648, 0.004799569025635719, -0.20193053781986237, -0.05023636296391487, -0.2523566782474518, 0.04978461191058159, 0.18097731471061707, -0.1857675164937973, 0.11231254786252975, 0.026587095111608505, -0.270551472902298, -0.05919583886861801, 0.07502439618110657, 0.11494935303926468, -0.12116227298974991, 0.16813717782497406, -0.0008588483324274421, 0.20139329135417938, -0.13497839868068695, -0.22082358598709106, -0.13930287957191467, 0.202114537358284, -0.0581326000392437, 0.09099631756544113], [0.04909946024417877, -0.0844011977314949, 0.13333052396774292, 0.0664687380194664, 0.020832141861319542, -0.09595728665590286, -0.0349639356136322, 0.10879009962081909, -0.15497398376464844, 0.0153118334710598, -0.18326252698898315, -0.06836407631635666, -0.10129328072071075, 0.07277252525091171, 0.08258943259716034, 0.10140784084796906, 0.0973924994468689, -0.09001296013593674, -0.020142599940299988, -0.0900721326470375, -0.007383998483419418, -0.14763908088207245, -0.0005473867058753967, -0.007382173556834459, 0.17298762500286102, 0.03594866394996643, -0.17960186302661896, 0.06246916204690933, -0.10477572679519653, -0.2045889049768448, -0.16142216324806213, -0.02166842482984066], [-0.09124140441417694, -0.20211908221244812, 0.085514135658741, -0.08143246918916702, -0.03613978624343872, 0.03259842097759247, -0.08272348344326019, -0.06765486299991608, 0.05452808365225792, -0.07150658220052719, 0.06707645207643509, -0.00999345351010561, 0.12235388904809952, -0.07598926872015, 0.1959236115217209, 0.13696235418319702, 0.1517362892627716, -0.05020136013627052, -0.19283075630664825, -0.08212288469076157, 0.06552054733037949, 0.12684185802936554, -0.16805437207221985, 0.06005948409438133, 0.22417603433132172, -0.11066282540559769, -0.11574135720729828, 0.10356196761131287, 0.0124988853931427, -0.04009682312607765, 0.07540883868932724, -0.05658802017569542], [0.22384190559387207, -0.2002720981836319, 0.2441810965538025, -0.15788991749286652, -0.043224629014730453, -0.02259831130504608, -0.03916970267891884, -0.1413227617740631, 0.07415437698364258, 0.01166404876857996, -0.05827712640166283, -0.005038854666054249, 0.12375585734844208, 0.051864199340343475, -0.16370077431201935, -0.14899802207946777, 0.16485609114170074, -0.06971665471792221, 0.14859724044799805, 0.027878424152731895, 0.14534510672092438, 0.07952506095170975, -0.19708451628684998, -0.024564260616898537, 0.10795364528894424, 0.1830333173274994, 0.048863958567380905, -0.17172791063785553, -0.08332102745771408, 0.07198396325111389, -0.061919450759887695, 0.08959805965423584], [0.0900648981332779, -0.04349314793944359, -0.07470397651195526, 0.09287285804748535, -0.19091257452964783, -0.12754634022712708, -0.017121976241469383, 0.10481850057840347, -0.11458376795053482, -0.08448411524295807, 0.1084073930978775, -0.0633949339389801, 0.14161604642868042, 0.14302891492843628, -0.06737879663705826, 0.11835683882236481, 0.14306874573230743, -0.0686722993850708, -0.18713440001010895, -0.11492025852203369, 0.09228800237178802, 0.3198990225791931, -0.05269588157534599, -0.1845071017742157, -0.024922484531998634, 0.007969262078404427, -0.07017358392477036, 0.12172786891460419, -0.2441350370645523, -0.0720575675368309, -0.15072685480117798, 0.010983496904373169], [-0.12086305022239685, 0.012039183638989925, -0.05475413426756859, -0.06076779589056969, -0.05287579074501991, 0.09773004800081253, 0.1279652714729309, 0.04399866983294487, -0.11431259661912918, 0.17205263674259186, 0.1251453161239624, 0.09234921634197235, -0.10205038636922836, -0.11594334989786148, 0.2372787892818451, -0.10920587182044983, 0.08757518231868744, 0.1277322769165039, -0.22389483451843262, 0.10260529816150665, -0.014449618756771088, -0.04425468668341637, 0.05974932014942169, -0.1514481008052826, 0.07220863550901413, -0.08383237570524216, -0.1268952190876007, 0.10187458992004395, -0.07066667079925537, -0.11889348179101944, 0.0852365493774414, 0.11705514043569565], [0.00305426144041121, -0.13897596299648285, -0.07647587358951569, 0.030619632452726364, -0.24182020127773285, -0.09265495091676712, 0.05283432453870773, -0.13711553812026978, -0.1057407557964325, 0.1776880919933319, 0.14445647597312927, 0.033261001110076904, 0.011412498541176319, 0.1854497194290161, -0.006337361875921488, 0.2147476077079773, 0.022273536771535873, -0.21713446080684662, 0.09052902460098267, 0.13684330880641937, -0.09038802236318588, 0.19656001031398773, 0.02242320589721203, -0.15177254378795624, -0.004330816213041544, 0.1171298399567604, 0.18108761310577393, 0.13353444635868073, -0.14299288392066956, 0.009124907664954662, -0.08836391568183899, -0.11688895523548126], [0.04037878289818764, 0.04799942299723625, 0.05216647684574127, -0.028997017070651054, -0.1258460134267807, 0.06026212498545647, -0.038221996277570724, 0.14365729689598083, 0.04057489335536957, 0.006529888603836298, -0.1193259209394455, 0.17604024708271027, 0.08477922528982162, 0.11724919080734253, 0.13479085266590118, -0.09154694527387619, -0.045283615589141846, -0.09077350050210953, -0.022491097450256348, 0.06657727807760239, -0.22930406033992767, 0.08344312757253647, -0.03245573118329048, -0.05789029970765114, 0.13128438591957092, -0.1622365564107895, -0.04025992378592491, -0.15986527502536774, -0.029018042609095573, -0.09039627760648727, 0.13146671652793884, 0.24583441019058228], [0.1362900733947754, -0.11572641879320145, 0.096946120262146, 0.0023825380485504866, 0.06461057811975479, 0.10343954712152481, 0.11643310636281967, 0.12398824840784073, 0.003517139470204711, -0.11051059514284134, 0.09107940644025803, 0.11293599754571915, -0.1431470513343811, -0.15295323729515076, -0.13607467710971832, -0.26419004797935486, 0.1710258573293686, 0.2693796455860138, -0.02466771751642227, -0.02740684524178505, -0.17201000452041626, -0.21969804167747498, -0.012309134937822819, 0.12194716930389404, -0.04155232757329941, -0.06596077233552933, 0.06040309742093086, -0.22138215601444244, 0.11849159002304077, 0.026178942993283272, 0.1075061559677124, -0.018767988309264183], [-0.054439254105091095, -0.1413685381412506, -0.041870877146720886, 0.1265433132648468, -0.0905686765909195, -0.018490958958864212, -0.09707731753587723, -0.11787410825490952, 0.03951184079051018, 0.01616349257528782, 0.1947207748889923, 0.07731182873249054, 0.1011577770113945, 0.056542154401540756, 0.11060374230146408, -0.028275884687900543, -0.0399264357984066, -0.03553970903158188, 0.06905467808246613, -0.08450596779584885, -0.22077424824237823, 0.14270712435245514, -0.17313845455646515, 0.0008065010770224035, -0.21868012845516205, -0.16124553978443146, 0.17989563941955566, -0.13841506838798523, 0.09065937250852585, -0.10852856934070587, -0.018591519445180893, -0.14562031626701355], [0.08391427993774414, -0.09185898303985596, -0.12777753174304962, 0.03300830349326134, -0.17565865814685822, 0.030192244797945023, 0.034102145582437515, 0.024642765522003174, 0.10260062664747238, 0.1335858553647995, -0.0568048320710659, -0.04983215034008026, -0.14191623032093048, 0.04632488265633583, -0.07866035401821136, 0.12491971999406815, 0.0005050816107541323, 0.023994704708456993, -0.04039573669433594, -0.04675034061074257, 0.024704566225409508, -0.08260879665613174, -0.1632150113582611, -0.2546481490135193, 0.10249726474285126, 0.051563069224357605, -0.01281639002263546, -0.03615696355700493, -0.05230085179209709, -0.04527188464999199, 0.034626927226781845, -0.011783409863710403], [-0.13539554178714752, -0.09131216257810593, 0.06785068660974503, 0.16511426866054535, -0.23673073947429657, -0.06195773184299469, 0.11744276434183121, -0.1635591983795166, -0.10397326946258545, 0.13968905806541443, -0.008097992278635502, 0.05269233137369156, -0.01566343754529953, 0.04383893683552742, -0.10812848806381226, 0.0051180096343159676, -0.16581220924854279, 0.039629969745874405, -0.0889057070016861, -0.1936323195695877, -0.13666607439517975, 0.15876193344593048, 0.038622286170721054, 0.07044054567813873, -0.138713538646698, 0.10201966017484665, -0.057261087000370026, -0.14472217857837677, 0.04238591715693474, -0.10711772739887238, -0.04801639914512634, -0.0714263841509819], [0.028765937313437462, -0.04919460043311119, -0.11104697734117508, -0.16255231201648712, 0.1556914746761322, -0.01406785286962986, 0.07698531448841095, -0.16743068397045135, -0.11243905127048492, 0.098035529255867, 0.11446414142847061, -0.12662707269191742, -0.06871134787797928, 0.13526901602745056, -0.070642851293087, 0.15924657881259918, -0.05570245534181595, -0.02375105582177639, 0.10472753643989563, -0.1810501515865326, 0.15706442296504974, -0.10358566790819168, -0.2242305427789688, 0.10212849825620651, -0.09895447641611099, 0.04731840267777443, -0.1273595690727234, -0.12885673344135284, 0.07207898050546646, 0.018335523083806038, 0.17018941044807434, -0.1859939992427826], [0.08901210874319077, 0.12460149079561234, -0.06440089643001556, -0.024650178849697113, 0.07486411929130554, 0.2023969441652298, -0.03128538280725479, 0.15733802318572998, -0.010726001113653183, 0.08850201219320297, -0.09449749439954758, -0.05108259245753288, 0.006464892998337746, 0.08156408369541168, 0.18348844349384308, 0.11185575276613235, -0.2124737650156021, 0.046790603548288345, -0.17372684180736542, -0.15852953493595123, -0.17282964289188385, 0.0038273038808256388, 0.04658576846122742, 0.2294260561466217, 0.10599077492952347, -0.00970983412116766, -0.07267360389232635, 0.06511998921632767, -0.1548667550086975, -0.023467006161808968, -0.09943993389606476, -0.060494937002658844], [-0.10563631355762482, 0.1161416620016098, -0.06158248335123062, 0.12397044152021408, 0.10514788329601288, 0.2233196347951889, -0.04601617902517319, -0.0603746622800827, 0.01704881712794304, 0.08040617406368256, -0.04811824858188629, 0.12249595671892166, -0.1186634749174118, 0.14088208973407745, -0.12692023813724518, 0.09124816954135895, -0.0020224121399223804, -0.06306757777929306, 0.015926912426948547, 0.03529609367251396, -0.06172837316989899, -0.07969406992197037, 0.11956729739904404, -0.17690543830394745, -0.028735600411891937, -0.08943330496549606, 0.2678386867046356, 0.0029649208299815655, -0.056646477431058884, 0.14695602655410767, -0.04708439111709595, 0.14019453525543213], [0.011080294847488403, 0.1420508176088333, -0.08687734603881836, -0.07163330912590027, -0.0031140833161771297, -0.013687406666576862, -0.10355626046657562, -0.2160096913576126, -0.1669088900089264, 0.0058899447321891785, -0.1726788729429245, 0.10404438525438309, 0.21694344282150269, -0.01806219108402729, 0.027419835329055786, -0.031083164736628532, 0.04667201638221741, -0.02778630144894123, 0.1658564656972885, -0.14655528962612152, -0.0888863056898117, 9.997615961765405e-06, -0.0771293193101883, -0.056192170828580856, 0.21792854368686676, 0.20282858610153198, 0.05563610792160034, -0.168878436088562, -0.054436374455690384, -0.05429937317967415, 0.026423558592796326, -0.18203485012054443], [-0.1448325514793396, -0.08705427497625351, -0.0032692179083824158, -0.022691618651151657, -0.05850197374820709, -0.07430510222911835, 0.10363686084747314, -0.13829098641872406, -0.15952253341674805, 0.15453237295150757, 0.15938296914100647, -0.0892288088798523, 0.014529690146446228, 0.14558255672454834, -0.13419945538043976, 0.13056401908397675, 0.11976351588964462, 0.07050778716802597, 0.0577060729265213, -0.08318578451871872, -0.11577735096216202, 0.11751522868871689, 0.10882006585597992, 0.10711730271577835, 0.06275548040866852, -0.012304814532399178, -0.034245721995830536, 0.12858916819095612, -0.004738515708595514, -0.08092223852872849, 0.010708780959248543, -0.18415150046348572], [0.1313851773738861, 0.17411962151527405, -0.08037716895341873, 0.010194681584835052, -0.009172657504677773, -0.10552048683166504, -0.031109215691685677, -0.1712275743484497, -0.14531958103179932, 0.0691048875451088, -0.2142193615436554, -0.0626692995429039, 0.2207905650138855, -0.12293469905853271, 0.041969768702983856, -0.03240297734737396, 0.10191619396209717, -0.06051544100046158, 0.07345625758171082, 0.04209531843662262, 0.09234366565942764, 0.11328383535146713, -0.10997451096773148, -0.04233858361840248, 0.12760919332504272, 0.04543949291110039, -0.2070254683494568, 0.044596776366233826, 0.0563872754573822, 0.13392207026481628, -0.16542209684848785, 0.12332213670015335], [0.17901255190372467, -0.11392023414373398, 0.15204229950904846, -0.08746002614498138, 0.08308401703834534, -0.08018332719802856, 0.24403320252895355, -0.11415069550275803, -0.00561468256637454, -0.14479833841323853, 0.13445326685905457, -0.12519100308418274, 0.11674675345420837, 0.07232598215341568, 0.014384711161255836, 0.07496865838766098, 0.13660936057567596, -0.09448545426130295, -0.06256821751594543, 0.11301251500844955, 0.10949233174324036, 0.06216543912887573, 0.006210035644471645, -0.20525765419006348, -0.04613596946001053, 0.10206978768110275, 0.0960262343287468, 0.09993184357881546, 0.1467343419790268, 0.10536165535449982, 0.1541140079498291, 0.08828728646039963], [-0.12189960479736328, -0.0861077755689621, -0.13763263821601868, 0.17645637691020966, 0.007037393283098936, -0.014069827273488045, -0.14537420868873596, -0.2078498899936676, 0.22876107692718506, 0.17416906356811523, 0.15443328022956848, 0.026644203811883926, -0.2146226316690445, 0.19347088038921356, 0.2110191136598587, -0.07680138200521469, -0.10029949247837067, 0.05550437793135643, -0.22218535840511322, -0.071477510035038, -0.0934981182217598, 0.07268413156270981, -0.02441498637199402, 0.22496090829372406, 0.01411246694624424, -0.17535172402858734, 0.11764395982027054, 0.03878922015428543, 0.04741646349430084, -0.003857050323858857, -0.07892192155122757, 0.004762682132422924], [0.18637588620185852, 0.05314095318317413, -0.1535789966583252, -0.10033929347991943, 0.13653747737407684, -0.1746860146522522, -0.10893552750349045, -0.014696410857141018, -0.15014907717704773, 0.1092212051153183, -0.050883010029792786, -0.07190309464931488, 0.16237176954746246, -0.018621934577822685, 0.1502683460712433, -0.11940335482358932, 0.0876597911119461, -0.04003945365548134, -0.07340816408395767, 0.04414874315261841, -0.01559711154550314, -0.019287241622805595, -0.0840938612818718, 0.007587350904941559, 0.16170737147331238, 0.055584538727998734, 0.07527732849121094, 0.10886897891759872, -0.05089368671178818, 0.001253210473805666, -0.05898946523666382, -0.06568979471921921], [-0.033429477363824844, -0.036148201674222946, -0.03812398388981819, -0.15149830281734467, 0.055459558963775635, -0.19517789781093597, 0.1697707325220108, 0.1474871188402176, -0.012827826663851738, -0.14281754195690155, -0.04776732623577118, -0.1443631947040558, -0.013475609943270683, -0.1039125844836235, -0.18914754688739777, 0.07680527120828629, 0.11817038804292679, -0.1382075697183609, 0.046778880059719086, 0.1729700267314911, 0.09562660753726959, 0.014831887558102608, 0.10077080875635147, -0.053316861391067505, 0.1325707882642746, 0.10992035269737244, -0.09912609308958054, 0.07082604616880417, 0.29340845346450806, -0.11602994799613953, -0.2608814537525177, 0.19315584003925323], [0.0313040092587471, -0.03519086912274361, 0.09798330813646317, 0.09143243730068207, -0.17929287254810333, -0.18969331681728363, 0.014871311374008656, -0.0599554218351841, -0.07079627364873886, -0.14776301383972168, -0.14509598910808563, -0.2209348827600479, -0.017681492492556572, 0.10845916718244553, -0.12534458935260773, -0.18367484211921692, -0.005771839991211891, 0.012931382283568382, 0.016346551477909088, -0.1166132315993309, 0.12655861675739288, -0.10251560807228088, 0.17341840267181396, -0.18128181993961334, 0.0660528764128685, -0.03701196610927582, 0.0641116350889206, 0.2844665050506592, 0.029979735612869263, 0.1394059658050537, -0.15200607478618622, 0.16799654066562653], [-0.004355875309556723, 0.005943847354501486, -0.04831777513027191, 0.030513767153024673, 0.018561704084277153, -0.1535736471414566, -0.058842506259679794, 0.06764256954193115, -0.09988325834274292, 0.15600718557834625, 0.0937669426202774, -0.027865715324878693, 0.044102251529693604, 0.05680817365646362, -0.09544844180345535, 0.12539350986480713, 0.053835004568099976, 0.18758714199066162, -0.043549466878175735, -0.028180129826068878, 0.11177388578653336, 0.01884709857404232, -0.04225644841790199, 0.14468832314014435, 0.030115410685539246, 0.0741390511393547, -0.06548497825860977, -0.12102250009775162, 0.1454402208328247, -0.15705937147140503, -0.17746886610984802, 0.14905215799808502], [-0.08255233615636826, -0.169224813580513, 0.032358914613723755, 0.1986006200313568, 0.06701648235321045, 0.08850084990262985, 0.10103873163461685, 0.09567021578550339, 0.1721040904521942, 0.18484355509281158, 0.07199433445930481, 0.001397354295477271, 0.090601846575737, -0.014992167241871357, -0.006723990198224783, 0.22774596512317657, -0.2536877691745758, -0.1489240527153015, -0.0867779552936554, 0.05745252966880798, 0.06283886730670929, 0.12864021956920624, -0.19008103013038635, 0.0829242542386055, -0.1229536309838295, -0.10450341552495956, 0.015553733333945274, 0.04176971688866615, -0.18606506288051605, 0.009425281547009945, 0.2423551082611084, -0.02686385251581669], [0.07281341403722763, 0.06609807163476944, -0.13681596517562866, 0.10363709926605225, 0.15828697383403778, -0.030432794243097305, 0.2149585485458374, 0.03865662217140198, 0.1343722641468048, 0.1936321258544922, 0.08728764951229095, 0.22273099422454834, -0.00624796561896801, 0.0997026264667511, 0.1264597326517105, -0.08168170601129532, -0.2671035826206207, 0.03966272249817848, -0.1991482377052307, -0.05385158583521843, -0.025186575949192047, -0.0031611330341547728, -0.072340227663517, 0.20132824778556824, 0.0498201884329319, -0.017947925254702568, 0.19177545607089996, 0.01485584769397974, -0.08496059477329254, 0.031210094690322876, -0.073003388941288, 0.05523788556456566], [0.021829966455698013, -0.07443877309560776, -0.12081676721572876, 0.07885180413722992, -0.13653387129306793, 0.22257286310195923, 0.17273223400115967, -0.004598506726324558, 0.110633984208107, -0.019076192751526833, 0.09693487733602524, 0.12377496808767319, -0.08676215261220932, 0.05566516891121864, 0.1183067187666893, -0.14731542766094208, 0.03719254210591316, 0.1318749040365219, -0.100554458796978, 0.10038132220506668, 0.057288140058517456, -0.022846650332212448, -0.1198078989982605, 0.22167767584323883, -0.022146709263324738, -0.10992935299873352, 0.16897505521774292, 0.03743639215826988, -0.042263735085725784, -0.04623459652066231, 0.16133862733840942, 0.09795210510492325], [-0.012519904412329197, 0.05780776962637901, -0.07914513349533081, 0.23840004205703735, -0.05484982952475548, 0.036904919892549515, -0.04916853830218315, -0.22340159118175507, -0.010562882758677006, 0.2072823941707611, 0.028173355385661125, -0.005395134445279837, -0.05962018668651581, -0.004761944059282541, 0.15796202421188354, 0.19007308781147003, -0.07141119986772537, -0.08436453342437744, 0.03913740813732147, 0.15120474994182587, 0.015380446799099445, -0.018226133659482002, -0.05042196810245514, 0.02126116305589676, 0.01565469056367874, 0.06815743446350098, 0.17545601725578308, -0.24796245992183685, -0.15477687120437622, 0.2474590390920639, -0.11826513707637787, -0.13482297956943512], [0.15607969462871552, -0.10905540734529495, -0.06769280880689621, -0.17947328090667725, -0.014158782549202442, 0.08847862482070923, -0.057350680232048035, 0.23497720062732697, 0.08613503724336624, 0.03991729021072388, -0.18729126453399658, 0.060268010944128036, 0.012485829181969166, 0.08909962326288223, -0.12813743948936462, 0.1316896378993988, -0.048008088022470474, -0.12659861147403717, 0.10260283946990967, -0.10763931274414062, 0.24125412106513977, 0.03204401582479477, -0.10657630115747452, -0.23300106823444366, 0.082706980407238, 0.04179895669221878, -0.07982242107391357, 0.007661923766136169, -0.07187644392251968, 0.09916254132986069, -0.046791721135377884, 0.08139543980360031], [-0.14100468158721924, -0.1652952879667282, 0.025664474815130234, 0.0831284299492836, 0.05923525616526604, 0.25537917017936707, -0.12920083105564117, 0.030398910865187645, 0.11834757775068283, -0.14987146854400635, 0.09263408929109573, -0.07083339989185333, 0.0006876662955619395, -0.003290989436209202, 0.15507854521274567, -0.02103886380791664, -0.1511392593383789, 0.1811782866716385, -0.09972906857728958, -0.01658426783978939, 0.01584083028137684, 0.04020138829946518, -0.018095506355166435, 0.07466068118810654, 0.0891527384519577, 0.02403690107166767, 0.03988780826330185, -0.1169915422797203, -0.11189921200275421, 0.13173897564411163, 0.13755035400390625, -0.19035185873508453], [-0.08383945375680923, -0.07127945870161057, 0.0709659606218338, -0.10854917764663696, -0.13324104249477386, 0.14923284947872162, -0.21614651381969452, -0.03475666046142578, 0.025699540972709656, 0.13337409496307373, -0.02601158246397972, -0.07057511061429977, -0.0600033774971962, -0.0223342627286911, -0.057640042155981064, 0.2219039350748062, 0.03203115984797478, -0.1378551572561264, -0.1070411205291748, -0.05028316006064415, 0.03320435807108879, 0.1336398720741272, -0.0489286333322525, 0.06298086792230606, 0.0018418028485029936, -0.1570417732000351, 0.04731271415948868, 0.05542183294892311, -0.15576399862766266, 0.03351590782403946, -0.03065594844520092, -0.013355457223951817], [-0.08776136487722397, -0.14644379913806915, 0.05566886067390442, 0.004251621197909117, -0.24805893003940582, 0.08165016770362854, -0.2055482715368271, 0.13802438974380493, -0.05464467406272888, 0.02420334331691265, -0.025028442963957787, -0.0505271814763546, 0.14865994453430176, 0.16955800354480743, 0.15217112004756927, -0.10665256530046463, -0.09369891881942749, -0.00911499373614788, -0.14697441458702087, 0.045416027307510376, 0.0859190970659256, 0.11606204509735107, -0.13720370829105377, -0.09120108932256699, -0.10135065019130707, -0.11285842955112457, -0.05644271522760391, 0.0936112105846405, -0.08347814530134201, 0.10895103216171265, 0.006486799102276564, 0.0038939318619668484], [0.10403015464544296, -0.14914943277835846, -0.03821259364485741, 0.10431427508592606, 0.09727886319160461, -0.06856834888458252, 0.10856331139802933, -0.020179813727736473, 0.015101650729775429, -0.005673898849636316, -0.16870038211345673, -0.016352485865354538, -0.07156512141227722, -0.0631093978881836, 0.07843822985887527, -0.10775116831064224, -0.04357433691620827, -0.038095563650131226, -0.10506591200828552, -0.13441863656044006, 0.007351824548095465, 0.10759122669696808, 0.023041820153594017, -0.10168333351612091, -0.13019941747188568, -0.15298733115196228, -0.022362694144248962, -0.13211403787136078, -0.004679991398006678, -0.13554508984088898, -0.009068231098353863, -0.01303556002676487], [-0.07088521867990494, -0.03696100413799286, -0.11375590413808823, 0.11926241964101791, 0.13107436895370483, -0.029649768024683, 0.10931684821844101, -0.013598947785794735, -0.13991911709308624, -0.0034259450621902943, -0.15635958313941956, 0.009227478876709938, -0.038732316344976425, 0.12896223366260529, 0.013073262758553028, 0.057008109986782074, 0.02371935360133648, -0.17467230558395386, 0.03225524351000786, 0.04127558320760727, -0.03533405438065529, 0.13528558611869812, 0.020888840779662132, -0.15400755405426025, -0.15682870149612427, 0.19532039761543274, -0.009882636368274689, 0.06441042572259903, 0.09996674209833145, -0.06746949255466461, 0.0456526093184948, 0.05929106846451759], [-0.025306809693574905, 0.11473698168992996, 0.208729550242424, -0.06433603912591934, 0.04526688531041145, 0.052320100367069244, -0.09942682832479477, 0.10195957124233246, 0.27610504627227783, -0.09945768862962723, 0.051186271011829376, 0.1029767245054245, 0.11668910831212997, 0.06408865749835968, 0.10099226236343384, -0.10712594538927078, -0.030009210109710693, 0.25230613350868225, 0.016084415838122368, -0.10442918539047241, -0.1726258248090744, 0.1305454969406128, -0.10323820263147354, 0.10119594633579254, -0.08708131313323975, 0.16561958193778992, -0.1359347403049469, 0.11535443365573883, -0.045875344425439835, -0.06212283670902252, 0.10431323945522308, 0.010874995030462742], [-0.12432755529880524, 0.005596745293587446, 0.13207323849201202, -0.12273745983839035, 0.06874160468578339, 0.09125208854675293, -0.058539386838674545, 0.012924118898808956, 0.018796078860759735, -0.04133258014917374, 0.15955182909965515, -0.08748304098844528, -0.004662107210606337, 0.09369513392448425, -0.20147867500782013, 0.007189658936113119, 0.14543616771697998, 0.17280647158622742, -0.15994520485401154, 0.17592673003673553, 0.05342712998390198, -0.17653359472751617, 0.12220609933137894, -0.0268245916813612, 0.051283445209264755, -0.10298782587051392, 0.13187405467033386, -0.1675412952899933, 0.13989673554897308, -0.157539501786232, -0.21114903688430786, 0.037519149482250214], [0.044546760618686676, 0.13113415241241455, 0.21682263910770416, 0.031822577118873596, 0.08195004612207413, -0.13332892954349518, 0.0955880880355835, -0.10448949784040451, -0.13854429125785828, -0.109600730240345, -0.015196340158581734, -0.10227172821760178, -0.09174629300832748, -0.0366266593337059, -0.04387088119983673, 0.033049117773771286, -0.0035288960207253695, -0.1763732135295868, -0.083372563123703, 0.025200460106134415, -0.06507616490125656, 0.0178816057741642, 0.014805121347308159, 0.04349789768457413, 0.006917087826877832, 0.07824988663196564, -0.13288486003875732, 0.014795336872339249, 0.08556248247623444, 0.039669446647167206, -0.21892116963863373, 0.15724700689315796], [0.12020883709192276, 0.21870927512645721, 0.19405844807624817, -0.1346077173948288, 0.061631496995687485, -0.2865239679813385, 0.0896315723657608, 0.11405201256275177, -0.005690352525562048, -0.010853417217731476, -0.0653708204627037, -0.27400416135787964, 0.02025894820690155, -0.02905167080461979, 0.011290209367871284, 0.04461314156651497, -0.027645906433463097, -0.11300864815711975, -0.011681299656629562, 0.10368791967630386, 0.19831310212612152, -0.13799037039279938, -0.008689680136740208, -0.040519893169403076, 0.1609022319316864, 0.3190287947654724, -0.017847096547484398, 0.0021889274939894676, -0.07458434998989105, 0.05625944584608078, -0.015971247106790543, 0.12641306221485138], [0.0041000451892614365, -0.10999895632266998, 0.04762832820415497, -0.0033142457250505686, -0.03623538091778755, 0.05106555297970772, 0.013260100968182087, 0.10476848483085632, 0.055556926876306534, -0.03650733083486557, -0.10598202794790268, 0.15002568066120148, -0.1384931355714798, -0.0032241360750049353, -0.14129841327667236, 0.02433333918452263, -0.03261758014559746, 0.09174074977636337, -0.13208964467048645, -0.11716047674417496, 0.03767076134681702, 0.12654568254947662, -0.18084180355072021, -0.14992675185203552, -0.18785491585731506, 0.08835899084806442, 0.22375668585300446, -0.1695196032524109, -0.17943967878818512, 0.18476629257202148, 0.08196225762367249, 0.03746791556477547], [0.07989447563886642, 0.1623631715774536, 0.15398961305618286, -0.0643545612692833, 0.04643556475639343, -0.06230580806732178, 0.2986626923084259, -0.12136123329401016, -0.1440805047750473, -0.2280774712562561, 0.02936621382832527, 0.07580649852752686, -0.06224888935685158, -0.11083227396011353, -0.09701128304004669, 0.036212705075740814, 0.21537567675113678, 0.20370465517044067, 0.0781121701002121, -0.05099082365632057, 0.19027264416217804, -0.23823119699954987, 0.2134837806224823, -0.03974305838346481, -0.054769061505794525, 0.18063215911388397, -0.20464414358139038, 0.1750461906194687, 0.11696838587522507, -0.08598262816667557, -0.07902421057224274, 0.1845404952764511], [0.2724962532520294, -0.27420952916145325, -0.06482354551553726, -0.22101867198944092, 0.1809062659740448, 0.10096566379070282, 0.3252256214618683, -0.32843950390815735, -0.14675207436084747, 0.0783415138721466, -0.15183965861797333, -0.16301749646663666, -0.07880168408155441, 0.26747754216194153, -0.06949345022439957, -0.20698006451129913, 0.13865603506565094, 0.2194327712059021, -0.2043018639087677, -0.2326652556657791, -0.19269594550132751, 0.06263276189565659, -0.013785307295620441, 0.022954745218157768, 0.10412300378084183, 0.1133408173918724, -0.03358982130885124, -0.11651389300823212, -0.08245372772216797, 0.07990582287311554, 0.11660176515579224, -0.23459124565124512], [0.1332196444272995, -0.10396800935268402, -0.007133659906685352, -0.26973217725753784, 0.3049231469631195, -0.08863957226276398, 0.041545070707798004, -0.22948645055294037, -0.15445148944854736, 0.39002764225006104, 0.03656621277332306, -0.08721659332513809, 0.03134303539991379, 0.20823615789413452, 0.05441749095916748, 0.05253105238080025, 0.006092243827879429, 0.033311668783426285, -0.1739816516637802, -0.41438016295433044, -0.04525215923786163, -0.24650470912456512, -0.21916262805461884, 0.2243231236934662, 0.10355537384748459, -0.1246442198753357, 0.021292025223374367, -0.37869906425476074, 0.03873597830533981, 0.11974206566810608, -0.15570874512195587, -0.25885969400405884], [0.21968266367912292, -0.16319189965724945, -0.07048874348402023, 0.07971704006195068, 0.29771989583969116, 0.08037984371185303, 0.0679684728384018, -0.025471307337284088, 0.018534336239099503, 0.012944480404257774, 0.015749767422676086, 0.05780555680394173, -0.039000965654850006, -0.14990080893039703, -0.026307610794901848, -0.1359332650899887, -0.10707849264144897, -0.03415822982788086, 0.022997098043560982, -0.0025319228880107403, -0.10667368024587631, 0.07023841887712479, 0.028656797483563423, -0.05583801865577698, 0.09649794548749924, -0.04705680161714554, -0.059651508927345276, -0.06344550102949142, 0.1609511822462082, 0.06635335832834244, 0.05087761580944061, -0.1049003154039383], [0.17685489356517792, -0.14736072719097137, 0.0971868708729744, 0.03419390320777893, 0.07168728858232498, -0.2954977750778198, -0.12320110201835632, 0.21211972832679749, 0.04389346390962601, -0.01771560125052929, -0.1157817542552948, -0.16547611355781555, 0.07880601286888123, -0.11707451194524765, 0.03881416469812393, 0.004382184706628323, 0.058513469994068146, 0.0998741015791893, -0.0732908546924591, 0.14058661460876465, -0.10377515107393265, -0.07994566857814789, 0.29176193475723267, -0.11025702208280563, -0.08134809881448746, 0.06480038911104202, 0.12839269638061523, 0.21575471758842468, 0.021685585379600525, -0.12893174588680267, -0.11921106278896332, 0.2796957194805145], [0.1962367743253708, -0.17086929082870483, 0.06825431436300278, -0.28970956802368164, 0.29717010259628296, 0.05070725083351135, 0.0017645503394305706, -0.3776632845401764, -0.02853807620704174, 0.1752815693616867, -0.28433865308761597, 0.07835699617862701, -0.13122309744358063, -0.008371355012059212, 0.1603364646434784, -0.29029399156570435, 0.05242056027054787, 0.1543578803539276, -0.12110587954521179, -0.22310771048069, -0.09048275649547577, 0.16195285320281982, -0.1641073077917099, 0.03045515902340412, 0.13993340730667114, -0.12697120010852814, -0.16606174409389496, -0.3026733696460724, -0.1310516595840454, 0.10960408300161362, -0.05812222510576248, -0.3352389931678772], [0.16918626427650452, -0.32683494687080383, 0.07085572928190231, -0.0885876789689064, -0.014481675811111927, -0.17454229295253754, 0.17332428693771362, -0.051934920251369476, -0.037407223135232925, 0.3192346394062042, -0.1078154593706131, 0.09412068873643875, -0.1541859656572342, 0.08813934028148651, -0.05245712772011757, 0.015609575435519218, -0.04661788418889046, -0.005675733555108309, -0.1894180178642273, -0.04886731877923012, -0.13731539249420166, -0.006737450137734413, -0.1365065574645996, 0.3004499077796936, 0.07256925106048584, -0.043741364032030106, 0.07929337024688721, -0.34251075983047485, 0.020047999918460846, 0.18338952958583832, 0.14772380888462067, -0.3287561535835266], [0.09229741245508194, -0.08575403690338135, -0.045072417706251144, -0.2933806777000427, -0.04587039723992348, 0.14883571863174438, 0.06614933162927628, 0.06131773442029953, -0.03071838617324829, 0.01970764622092247, -0.06810043752193451, -0.18589212000370026, -0.016509022563695908, 0.04173240065574646, -0.006506945937871933, -0.0005387766286730766, 0.08292628824710846, 0.026401251554489136, -0.1015443205833435, -0.03438064828515053, -0.1323310285806656, 0.1938788741827011, 0.00973921176046133, 0.16310179233551025, -0.02570458874106407, 0.036428067833185196, -0.07714418321847916, 0.005624575540423393, 0.06380552053451538, 0.02762611024081707, 0.07838878035545349, -0.20460039377212524], [-0.051365919411182404, -0.043526969850063324, 0.25717681646347046, -0.13411471247673035, -0.10251959413290024, -0.02799835242331028, 0.1626294106245041, 0.11275670677423477, -0.04247209429740906, -0.032516974955797195, 0.01044751238077879, -0.16817834973335266, 0.00623033381998539, 0.06364744901657104, -0.20215271413326263, 0.0709506943821907, -0.006395428907126188, 0.22992601990699768, 0.2219342142343521, -0.09151437133550644, 0.03721797093749046, -0.0171318668872118, 0.11178140342235565, 0.052999719977378845, -0.028205573558807373, 0.11413519829511642, 0.03903471678495407, 0.05969377979636192, -0.030484147369861603, 0.032139331102371216, -0.08944085240364075, 0.07978993654251099], [0.14640487730503082, 0.06544238328933716, 0.014843596145510674, -0.034071341156959534, -0.12994720041751862, 0.0003414496604818851, -0.06863684207201004, -0.07598170638084412, -0.10908590257167816, 0.13049380481243134, -0.17584973573684692, 0.06432110071182251, 0.010488918051123619, 0.03553001582622528, -0.006451316177845001, -0.07970641553401947, 0.0016885126242414117, 0.014460881240665913, 0.06419485062360764, -0.15448911488056183, 0.09194201231002808, 0.08141825348138809, -0.12991122901439667, -0.06605789065361023, 0.04231352359056473, 0.06267610937356949, -0.13408163189888, -0.07367416471242905, 0.08020801842212677, 0.03445965796709061, -0.06542189419269562, 0.01972786895930767], [0.17887958884239197, -0.4082081615924835, 0.18433994054794312, -0.31742575764656067, 0.2989693284034729, 0.021122027188539505, -0.00924762338399887, -0.6559475064277649, -0.18458552658557892, 0.2315247505903244, -0.02888369746506214, -0.0803341194987297, -0.08245057612657547, 0.3857191503047943, -0.06697719544172287, -0.11991684883832932, -0.05462456867098808, 0.18121777474880219, -0.0898052304983139, -0.5071315765380859, 0.06494493782520294, 0.018426204100251198, -0.09871475398540497, 0.31744328141212463, 0.12254053354263306, 0.10801976919174194, 0.0349326953291893, -0.625396728515625, 0.2554187476634979, 0.3778948187828064, -0.12904377281665802, -0.5471214056015015], [0.06576909869909286, -0.06415814906358719, 0.14209003746509552, -0.1950235515832901, 0.31755775213241577, -0.03339536860585213, 0.19828784465789795, -0.2560657262802124, -0.02185741439461708, 0.07855028659105301, 0.0448668971657753, -0.15140829980373383, -0.08340613543987274, -0.06765543669462204, -0.19521276652812958, -0.07929522544145584, 0.28924059867858887, 0.07757510989904404, -0.0751870721578598, -0.016410667449235916, 0.020698539912700653, 0.023223651573061943, -0.12722140550613403, 0.245666965842247, 0.209097757935524, 0.2881852984428406, -0.058422066271305084, -0.2348756641149521, 0.023400334641337395, 0.25797563791275024, -0.07727246731519699, -0.05012141913175583], [0.25852566957473755, -0.16513338685035706, 0.25178900361061096, -0.41217347979545593, 0.38927486538887024, 0.18926092982292175, 0.014588194899260998, -0.22142663598060608, -0.32165205478668213, 0.36715200543403625, -0.06356890499591827, -0.16401226818561554, -0.1417200118303299, 0.2043805569410324, 0.08963623642921448, -0.29335275292396545, 0.01169989351183176, 0.018955202773213387, -0.2015375792980194, -0.14533182978630066, 0.07752381265163422, -0.02072172239422798, -0.3724532723426819, 0.2836606502532959, 0.2674354612827301, 0.12433407455682755, -0.28648173809051514, -0.28145620226860046, 0.09294507652521133, 0.3878297507762909, -0.04238976538181305, -0.437578946352005], [0.5014309883117676, -0.08876626193523407, 0.09162583947181702, -0.39609870314598083, 0.08524119108915329, -0.02738252654671669, 0.1757081300020218, -0.2895596921443939, -0.3041246831417084, 0.24237944185733795, -0.16280235350131989, -0.16248801350593567, -0.06432109326124191, -0.0879673883318901, 0.11238738149404526, -0.24205969274044037, 0.16815221309661865, 0.06961261481046677, -0.027272861450910568, 0.06671526283025742, 0.11165278404951096, -0.17348122596740723, -0.1932159811258316, 0.10837657004594803, 0.14463146030902863, 0.008805868215858936, -0.19372642040252686, -0.043334390968084335, 0.26885247230529785, 0.2731941342353821, -0.22568458318710327, -0.09311475604772568], [0.43180620670318604, -0.07730215787887573, 0.19286568462848663, -0.35961413383483887, 0.34974831342697144, 0.11766934394836426, 0.1885860413312912, -0.297548770904541, -0.24489764869213104, 0.2488023191690445, -0.09995570778846741, -0.3036763668060303, 0.09950272738933563, 0.23579926788806915, 0.14201846718788147, -0.33365195989608765, 0.29591572284698486, 0.19894035160541534, -0.06255896389484406, -0.17748050391674042, 0.16933496296405792, -0.3031993508338928, 0.0037780546117573977, 0.451438844203949, 0.41144317388534546, 0.1006920337677002, -0.40302780270576477, -0.3200801908969879, 0.3876945972442627, 0.4412904977798462, -0.18001578748226166, -0.4160817563533783], [0.006658016704022884, -0.22207555174827576, 0.004104982130229473, 0.018715644255280495, 0.07424277812242508, 0.039758991450071335, 0.12611021101474762, 0.03614195063710213, 0.06917531043291092, 0.2781296968460083, -0.023073771968483925, -0.08735614269971848, 0.18028369545936584, 0.3967805504798889, -0.1246304139494896, 0.025724951177835464, -0.17649084329605103, 0.3761703073978424, -0.23335066437721252, -0.30789050459861755, -0.21129435300827026, -0.13598528504371643, -0.07835248857736588, 0.11374393850564957, -0.015578626655042171, 0.0864645466208458, -0.11863881349563599, -0.3312884271144867, -0.050676871091127396, 0.16627110540866852, -0.18778462707996368, -0.06359046697616577], [0.22092761099338531, 0.015039305202662945, 0.09059462696313858, -0.1787879467010498, 0.2311994433403015, 0.09393575042486191, 0.04977848008275032, -0.23602792620658875, -0.2822788655757904, 0.27347004413604736, 0.02660215273499489, -0.11640848964452744, -0.22761079668998718, 0.20971199870109558, -0.045042794197797775, -0.05529647320508957, -0.19275331497192383, -0.05941450595855713, -0.09863080084323883, -0.04268944635987282, -0.10445425659418106, 0.03313782066106796, -0.27232593297958374, 0.3339596688747406, 0.2013104110956192, 0.13373833894729614, 0.1411195695400238, -0.11878225952386856, -0.04337933287024498, 0.17368105053901672, -0.10008114576339722, -0.05233615264296532], [0.0023327788803726435, -0.2299821674823761, 0.034251619130373, -0.05468100681900978, 0.2143092304468155, 0.019248420372605324, 0.0076695638708770275, -0.4218508005142212, -0.3421778380870819, 0.036010026931762695, -0.041227035224437714, 0.07197131961584091, -0.20410595834255219, -0.10739130526781082, 0.27666744589805603, -0.30706149339675903, 0.16240738332271576, -0.10737738758325577, -0.24588792026042938, -0.37627288699150085, -0.10767937451601028, -0.0477549210190773, -0.2735389769077301, 0.11355868726968765, 0.022417517378926277, 0.13594092428684235, -0.07886680960655212, -0.12199688702821732, -0.0013328357599675655, 0.1723240315914154, 0.1641991287469864, -0.35041794180870056], [0.08794718980789185, -0.0754399299621582, -0.11554074287414551, -0.38644686341285706, 0.011109163984656334, -0.13519757986068726, 0.06669294834136963, -0.195255845785141, -0.12440130114555359, 0.14265213906764984, -0.025788186118006706, -0.13748659193515778, 0.03337111324071884, -0.05805673450231552, 0.20484235882759094, -0.10512684285640717, 0.12183711677789688, 0.11358358711004257, -0.24663813412189484, -0.20738452672958374, 0.03834138065576553, 0.08004067838191986, -0.1882997751235962, 0.1527516096830368, 0.13523565232753754, 0.04387615993618965, -0.012589039281010628, -0.11814461648464203, -0.06801969558000565, 0.27381378412246704, -0.1552973985671997, -0.36795929074287415], [0.08148914575576782, 0.07050582766532898, 0.04082619026303291, -0.40783724188804626, 0.05866909399628639, 0.09513688087463379, 0.1913914531469345, 0.015652747824788094, -0.4663354158401489, 0.05601773038506508, 0.05171339958906174, -0.14236129820346832, 0.02112320065498352, 0.13900506496429443, 0.14113777875900269, -0.234002485871315, -0.06610532850027084, 0.09785022586584091, -0.216228187084198, -0.04579336941242218, -0.06868386268615723, 0.13154536485671997, 0.10916054248809814, 0.13692329823970795, 0.025130465626716614, -0.049533337354660034, -0.018038736656308174, -0.1774873286485672, 0.32627883553504944, 0.07303984463214874, -0.0679658055305481, -0.2136608362197876], [0.35784712433815, -0.19658640027046204, 0.004036924801766872, -0.2119191586971283, 0.34838441014289856, 0.16671296954154968, 0.14677993953227997, -0.0761696845293045, -0.29532378911972046, 0.32509759068489075, -0.03550295531749725, -0.27881595492362976, -0.20155762135982513, 0.12462951987981796, 0.06054620444774628, -0.0938611626625061, 0.07924927026033401, -0.004328051581978798, -0.11102447658777237, -0.017476996406912804, 0.12535332143306732, -0.1617957204580307, -0.2940811514854431, 0.2782652974128723, 0.28519436717033386, 0.13624992966651917, -0.13139557838439941, -0.11477337032556534, 0.24943703413009644, 0.10571689158678055, 0.028468187898397446, -0.34698110818862915], [0.05200225114822388, 0.011605539359152317, 0.0018277019262313843, -0.008271959610283375, 0.2310657650232315, -0.21554014086723328, 0.12431245297193527, -0.2128126323223114, -0.2780514359474182, -0.023599203675985336, -0.10735644400119781, 0.05456099659204483, 0.036814380437135696, 0.22140754759311676, -0.11044710129499435, -0.019502177834510803, 0.13360680639743805, 0.17941804230213165, -0.1469835638999939, -0.31550562381744385, -0.09907635301351547, -0.0093858502805233, -0.13218343257904053, 0.06299010664224625, 0.24050913751125336, 0.006938672624528408, -0.01698462851345539, -0.17726844549179077, -0.0644146054983139, 0.31144487857818604, -0.20069703459739685, -0.1831202656030655], [0.2888276278972626, 0.04081284627318382, -0.04688169062137604, -0.48315665125846863, 0.35338476300239563, -0.10197816789150238, 0.16164973378181458, -0.00018543796613812447, -0.6098878383636475, -0.0375538095831871, -0.051477644592523575, -0.22674743831157684, 0.02183162048459053, 0.19930344820022583, 0.16462358832359314, -0.3974047899246216, 0.12472635507583618, 0.13986819982528687, -0.0320211797952652, -0.0875529795885086, -0.05605906620621681, 0.09124141931533813, 0.023338906466960907, -0.029194436967372894, 0.37432950735092163, -0.03726750612258911, 0.040801387280225754, -0.26374584436416626, 0.01795002818107605, 0.11426175385713577, -0.021927660331130028, -0.14134588837623596], [0.007531960494816303, 0.01683017425239086, 0.004163871519267559, 0.018807515501976013, -0.08807633072137833, 0.10693186521530151, -0.07906312495470047, 0.02555478736758232, 0.14153535664081573, 0.13271336257457733, -0.01570156030356884, 0.055175624787807465, 0.046367812901735306, 0.06784310936927795, 0.06722838431596756, 0.20578309893608093, 0.03321283310651779, -0.06154530867934227, -0.11634766310453415, -0.17410792410373688, 0.03704289346933365, 0.13494350016117096, 0.001838429132476449, 0.032520148903131485, -0.11602048575878143, -0.19079750776290894, 0.06644576787948608, -0.13310399651527405, 0.09540781378746033, 0.1357569545507431, -0.12172059714794159, -0.19274534285068512], [0.024926461279392242, -0.23549790680408478, -0.05746892839670181, 0.08766920864582062, 0.1902809590101242, 0.0951089859008789, 0.20320700109004974, -0.17994830012321472, -0.20515714585781097, 0.17299847304821014, 0.04556482657790184, -0.12235461175441742, 0.1587112993001938, 0.20169295370578766, 0.07782355695962906, 0.012231196276843548, 0.2460663765668869, 0.1432381570339203, 0.03024529293179512, -0.045606233179569244, 0.03779418393969536, 0.11222776025533676, -0.14354835450649261, 0.19248861074447632, 0.11493074893951416, -0.033253833651542664, -0.05258137360215187, -0.09006236493587494, 0.18521539866924286, 0.002667191671207547, -0.06294938176870346, -0.09844548255205154], [0.3219975233078003, -0.16491080820560455, -0.07257793843746185, -0.14116698503494263, 0.06838979572057724, 0.10832763463258743, 0.17342178523540497, -0.32984158396720886, -0.3363986909389496, 0.12046006321907043, -0.0627276748418808, 0.08124896138906479, -0.39958977699279785, 0.043405964970588684, 0.03251683712005615, -0.25058770179748535, -0.10829256474971771, -0.02636857144534588, -0.3601647913455963, -0.32812586426734924, -0.24456733465194702, -0.20341548323631287, -0.22879886627197266, 0.10590613633394241, 0.11590933799743652, 0.12903322279453278, -0.08754156529903412, -0.3820843994617462, 0.019217384979128838, 0.3153359293937683, -0.03089296445250511, -0.3731207549571991], [0.14493533968925476, -0.12348215281963348, 0.16206565499305725, -0.2474135458469391, 0.13403217494487762, 0.12275483459234238, -0.03565162420272827, -0.36522117257118225, -0.23825210332870483, 0.35820138454437256, -0.0778580904006958, -0.19926229119300842, 0.0713987797498703, 0.20551979541778564, -0.13223373889923096, -0.06965795904397964, 0.11825985461473465, -0.015345688909292221, -0.18458077311515808, -0.31021326780319214, 0.08437216281890869, -0.05692915618419647, -0.18377003073692322, 0.20990504324436188, 0.1392519772052765, -0.14016368985176086, -0.2043994516134262, -0.3449111878871918, -0.1198691576719284, -0.04291294142603874, 0.09567539393901825, -0.36396369338035583], [0.047368742525577545, -0.004123609978705645, -0.15818043053150177, -0.1588508039712906, 0.09735915064811707, -0.008185326121747494, -0.0427221916615963, -0.06396867334842682, 0.08161193877458572, 0.10943498462438583, -0.13727843761444092, -0.09309756010770798, -0.1049000546336174, 0.00334062147885561, 0.1609085351228714, 0.0699102133512497, 0.0034084029030054808, 0.053895339369773865, -0.06462978571653366, -0.03274356946349144, -0.18750806152820587, 0.19341471791267395, -0.2539972960948944, -0.09625446796417236, 0.16990207135677338, 0.032740358263254166, -0.0604192391037941, -0.19186945259571075, -0.10448046773672104, 0.23534508049488068, 0.08406896889209747, -0.23538081347942352], [-0.03491484001278877, -0.2579917311668396, 0.06818898767232895, -0.2666608691215515, -0.05577445775270462, -0.12749141454696655, 0.04143568500876427, -0.30725494027137756, 0.013514402322471142, 0.30982592701911926, -0.19206422567367554, -0.020609823986887932, -0.05697968974709511, 0.20092995464801788, 0.06757326424121857, -0.06912101060152054, 0.24069662392139435, -0.06377453356981277, -0.06477998197078705, -0.2485514134168625, -0.10242326557636261, 0.11958802491426468, 0.08663348853588104, 0.2610926628112793, 0.23292332887649536, 0.1561802625656128, -0.22973397374153137, -0.1069132387638092, 0.18165458738803864, 0.17303545773029327, -0.07780278474092484, -0.0727861076593399], [0.09349927306175232, -0.15245965123176575, -0.15141890943050385, -0.12374909967184067, -0.06482676416635513, 0.03435441479086876, -0.18613341450691223, -0.03887858986854553, -0.07848256826400757, 0.21159318089485168, -0.02757277898490429, 0.1373225897550583, 0.08608601242303848, 0.0050256261602044106, -0.02776777185499668, 0.14539895951747894, 0.015099178068339825, -0.2573178708553314, 0.013137162663042545, 0.009532865136861801, -0.059964582324028015, 0.04203278198838234, 0.06910385191440582, 0.08437734097242355, 0.07240458577871323, 0.13423453271389008, -0.12651126086711884, 0.1374998688697815, -0.11383725702762604, 0.06191498413681984, -0.13698537647724152, -0.03901807963848114], [0.05453749746084213, -0.26303306221961975, -0.03021952696144581, -0.19984053075313568, 0.22245651483535767, -0.061984676867723465, 0.1760178804397583, -0.3559519052505493, -0.08322183787822723, 0.28195884823799133, -0.1588468700647354, -0.19910576939582825, 0.07714954763650894, -0.018941035494208336, -0.01342602539807558, -0.2711738049983978, 0.05658389627933502, 0.06896679848432541, -0.16798439621925354, -0.11593858152627945, 0.1596350371837616, -0.2922271490097046, -0.19508007168769836, 0.21507616341114044, 0.05727697163820267, 0.04703778028488159, -0.0022091849241405725, -0.1552574783563614, -0.005811663810163736, 0.033729374408721924, -0.157816544175148, -0.3685774803161621], [-0.055451612919569016, -0.09488657116889954, -0.023754578083753586, -0.31637823581695557, -0.16922606527805328, 0.05652162432670593, 0.11395257711410522, 0.0030749281868338585, -0.08331912755966187, -0.07221677154302597, -0.02137991413474083, 0.025686198845505714, -0.1832035332918167, -0.08624937385320663, 0.1758245974779129, 0.029557541012763977, 0.20192115008831024, -0.06804843991994858, -0.2215036004781723, -0.18436932563781738, 0.17806695401668549, -0.122428759932518, 0.11045245826244354, -0.08792278915643692, 0.3046008348464966, -0.06802882999181747, -0.03416167199611664, -0.017069045454263687, -0.06531307846307755, 0.07634620368480682, 0.13932384550571442, -0.22996772825717926]]

Layer: lstm.bias_ih_l0
